<?xml version="1.0"?>
<opencv_storage>
<opencv_ml_ann_mlp>
  <format>3</format>
  <layer_sizes>
    12 50 25 12 2</layer_sizes>
  <activation_function>SIGMOID_SYM</activation_function>
  <f_param1>1.</f_param1>
  <f_param2>1.</f_param2>
  <min_val>-9.4999999999999996e-01</min_val>
  <max_val>9.4999999999999996e-01</max_val>
  <min_val1>-9.7999999999999998e-01</min_val1>
  <max_val1>9.7999999999999998e-01</max_val1>
  <training_params>
    <train_method>BACKPROP</train_method>
    <dw_scale>1.0000000000000000e-03</dw_scale>
    <moment_scale>1.0000000000000000e-03</moment_scale>
    <term_criteria>
      <epsilon>1.0000000000000001e-09</epsilon>
      <iterations>1</iterations></term_criteria></training_params>
  <input_scale>
    1.9157153255674641e-02 -1.6062782856177633e+00
    2.5966443523447093e-02 -1.2880097073106440e+00
    1.2584681608183174e-02 -1.7299349529646009e+00
    7.9389282546048223e-01 3.1603924935965017e-01 3.7882025509643497e-01
    -9.0570044821639523e-02 8.4317937404250598e-01
    1.7278365878877067e-01 6.3234934018228826e+00 1.3878180176506075e-01
    7.4118000079132802e+00 -2.3215768507688986e-01
    1.7350043808003299e+01 -7.7007506529682708e+00
    1.6670151881233913e+01 -1.0712576564003385e+01
    1.5898185179261723e+01 -8.5697083839197834e+00
    1.6872867213854473e+01 -1.0825249956531930e+01</input_scale>
  <output_scale>
    5.2631578947368418e-01 4.9999999999999994e-01 5.2631578947368418e-01
    4.9999999999999994e-01</output_scale>
  <inv_output_scale>
    1.8999999999999999e+00 -9.4999999999999996e-01
    1.8999999999999999e+00 -9.4999999999999996e-01</inv_output_scale>
  <weights>
    <_>
      -1.2587297616286056e-01 -3.4452881359772580e-01
      -2.2766013850390976e-01 2.0012333348950187e-01
      -2.0133589807524432e-01 1.0055339935333964e-01
      2.8234030155239892e-01 9.1319454902502734e-03
      -1.4424820219132281e-01 5.8873455570060362e-01
      5.8342540874654292e-01 8.2167959407910565e-02
      4.0854445266783485e-01 -8.2459008363354847e-01
      -5.5546879534570090e-02 -7.7180295918182951e-01
      2.3184764860086970e-01 8.1567829216078247e-01
      7.6121951786844985e-02 2.8352248164910449e-01
      1.4453046513133128e-01 -8.7804705788750703e-01
      1.5404838018757663e-01 -6.3588029423879647e-03
      1.0715929551943569e-01 -4.7053021209225393e-01
      -1.1452595800525251e-02 -7.8176345059655761e-02
      4.3043712420523288e-02 6.5178391817873693e-01
      4.4540237393066551e-01 -6.5474096259648928e-01
      5.4150654690578164e-02 5.6493355837016968e-01
      2.0012645731475159e-01 -1.7372392950029297e-01
      -8.7999046822958904e-01 -5.7435545018604917e-01
      -3.8259253388471315e-01 -3.6971462863270138e-01
      -8.7916001358538876e-01 2.5636699620339537e-01
      1.0704243785275982e+00 2.7082843969738358e-02
      2.3872870791878029e-01 -4.3597270233381524e-01
      7.0954038139541631e-01 4.7425295304386064e-02
      -6.5380223833711626e-01 -4.9686042206432707e-01
      -5.5926819126998861e-01 -5.6521359304683487e-02
      -4.5946488601418017e-01 1.8509777069458611e-01
      -9.7116643526979299e-03 -1.7656004667083222e-01
      2.2385844121756907e-01 -2.5013520181883259e-01
      -3.7483889641249829e-01 4.8277679854533628e-02
      -3.2166055661880766e-01 -5.0925665547357071e-02
      -2.7821647759695922e-01 -4.1077223073200136e-01
      -4.4569739779575218e-01 -3.4727452130502079e-01
      5.8004541857742238e-02 3.5811340788452889e-01
      -3.0813469816471500e-01 3.7035846610342404e-01
      3.4472863047947921e-01 3.4392009498043619e-01
      -4.1714083678120162e-01 8.1725467107220590e-02
      -7.8155346475714746e-03 -1.9388084508389755e-01
      9.7913331510718876e-02 2.1981015050393504e-01
      -2.8684249270131301e-01 -9.5728014296969297e-02
      5.7503888024277749e-01 -4.2323303753510133e-01
      -2.6770855438702917e-01 -4.8915582406277319e-01
      2.0446063665819159e-01 1.1459407184049621e+00
      3.3012961569148375e-01 8.7345993552854245e-02
      -1.0269530638201485e-02 4.7211036257939587e-01
      -3.9050824143965691e-02 -1.8683753277981663e-01
      7.6495429150613858e-01 -3.7990252391289664e-01
      5.0893706476739808e-01 -9.6910988590089328e-02
      3.2342924090690023e-01 3.6008609539845848e-01
      1.7787083872356513e-01 -6.4088387209845099e-01
      -3.9263320708507604e-01 -1.6845588546955659e-01
      -1.3912095798616433e-01 8.9103490911473404e-02
      -8.7677793151250044e-02 -1.2858377714344771e-01
      6.5733334714319996e-02 -3.8505224484021877e-01
      -6.2592077340088131e-03 1.5852810161599418e-01
      5.8310010427214998e-01 -7.0630064728991404e-01
      1.5372689362227607e-02 -4.2537762430038800e-01
      -2.5852569241125523e-01 5.0476151264217473e-01
      -1.0830234686450957e+00 1.5541294702231796e+00
      -1.3553348335740925e-01 3.7884165717623314e-01
      -2.0809944236622708e-02 -4.6406663253751956e-01
      7.4885482001869419e-01 -2.4208722061578386e-01
      1.4979712985236104e-01 -2.6152017510541914e-01
      9.2944510956071244e-02 3.0804951631830457e-02
      -2.4402097345572649e-01 -9.4446072985792073e-01
      -4.1483231937752146e-01 -4.8744220554724216e-01
      3.5314313564220462e-01 8.2446497440802557e-01
      -4.7173247374857036e-02 6.9226500755760179e-01
      -1.0865476819528803e+00 -2.3219437613529811e-01
      -4.7617489105324617e-01 -2.0455344112149476e-01
      -8.3377248088179379e-01 -1.2027811847660821e-01
      1.0536084219078716e+00 3.1873417955508221e-01
      3.5134344248090255e-01 -1.3568315380938828e-01
      3.1010208928200006e-01 3.8523611881394310e-01
      -3.8968529825865361e-01 -6.1650129526574698e-02
      -1.3617850720076741e+00 -2.9576697138595287e-01
      -1.3293543362269361e-01 -3.8313007292985826e-02
      3.5894252918285824e-01 -2.4341579943109001e-01
      -3.5008121087721716e-01 5.9834391994798675e-01
      6.7259379487509052e-01 1.0259319455848273e+00
      -8.1479558993963508e-01 -2.3442076708367229e-01
      5.0756146361870191e-01 -1.1324231992354589e-01
      3.2734654560397974e-01 1.7138270562655158e-01
      7.6822359454966072e-01 -1.3942341687561269e-01
      2.0195114812508996e-01 -5.6625112858212223e-01
      -2.7674485176757757e-01 4.6168429293172147e-01
      1.4350398928675714e-01 4.3840301472619060e-02
      -7.2024676221633208e-02 1.2213316118618228e-01
      9.4200599794324436e-01 4.9194929179368585e-01
      2.8498473469328928e-01 1.3496597997313868e+00
      -2.7490533732743982e-01 -4.9786361745804258e-01
      -1.8775479252444782e-02 -5.8768621497277973e-01
      -1.6463987127762489e-01 -5.5170645697482168e-01
      6.0015309234925852e-02 -4.7216233379255484e-02
      -2.0162856474517854e+00 3.9206143884245498e-01
      -4.6435213754914922e-01 6.9000158779927812e-01
      3.5271115057070666e-02 -8.3308594145796711e-01
      8.0096086621123985e-01 4.8377195747500717e-01
      -1.4958688076122695e+00 1.1066104446089219e-01
      -4.0267909421108816e-01 1.6675786824905342e-01
      -3.6108911669665189e-01 3.5774607883159060e-02
      -4.7742592145309376e-02 -2.5756469364953655e-01
      -7.6151241424193616e-01 7.8465877393460476e-02
      1.0560190075823148e-01 -1.8986562373263013e-01
      1.9387697967751000e-01 -2.2599077949138438e-01
      -4.6720702445218643e-01 1.5314749513950940e-01
      6.4786854391170778e-01 -6.2908819871104071e-01
      4.0729790515377901e-01 1.0134099305672541e+00
      6.2122878115854385e-01 -2.2388830618192340e-02
      -2.5969408929122112e-01 1.1423838556286697e-01
      -1.0620932701522856e+00 3.8832544089866899e-01
      -3.4224247175945449e-01 3.9377013296021302e-01
      -2.6175423380817736e-01 3.3824481054047384e-01
      1.1702920304703811e-01 4.6929773709834049e-01
      -8.9144357648849329e-02 9.1396514356956149e-01
      1.2472146669953128e+00 9.2027909704816294e-02
      -5.7337637453359569e-01 9.3276399581004499e-01
      2.1161512512217425e-02 1.3900933781731253e+00
      3.4672882162928742e-01 -2.5121815941097875e-01
      -7.8145161217503156e-01 4.9122556323301281e-01
      -6.0667630315752535e-02 -9.2878966299676868e-01
      1.4254698716876844e-02 2.3218525701281825e-02
      9.1086103023806386e-01 -5.8837056939882815e-01
      -9.5758696859661624e-02 -7.4953766703373545e-02
      7.2320994009446482e-01 7.2805328875690589e-01
      -4.4096327470758874e-02 -4.9361571341289090e-01
      -5.5779757094346905e-02 -5.1201552550252459e-02
      -7.2491151743915294e-01 9.6414178692013519e-01
      -2.4303521333964112e-01 -3.5500031744909205e-01
      6.3177342991315100e-01 -5.8803259590453194e-01
      2.1017388754560633e+00 1.8691019869618361e-01
      2.8952923187648272e-01 -4.0809595771316287e-01
      -3.9966408085167066e-01 -3.0629723109971418e-01
      1.0168836122087206e+00 -1.1539143803178429e+00
      -8.3977854626576351e-02 3.4346043265109527e-01
      -1.3351327743763383e-01 4.2242613768569143e-01
      -1.8980808734346230e-01 -1.8204288111147215e-01
      -4.1189809538176914e-01 -2.1265135863141546e-01
      -1.8199926143444534e-01 -2.3304011739441591e-01
      -4.5771846705108921e-01 4.2091380693518826e-01
      1.2575200749123389e-01 -5.7834307726769540e-01
      -1.3190957883563885e+00 8.7421749715199715e-01
      -3.6357434126054272e-02 1.2752614629851541e-01
      -6.8713213072144685e-01 6.2224837711950198e-01
      -8.7070295061444503e-01 1.1705383366868740e-02
      -4.3656402997120930e-01 1.0020733263709434e+00
      -1.1250649131109929e-01 7.9753715257220770e-01
      -5.6737950413882043e-01 4.4166877688677209e-01
      3.5402409146702146e-02 1.6801516520699017e-01
      8.5907210660510402e-01 -3.9167818498990919e-01
      -1.3094062655295971e-01 1.8756002266281512e-02
      -2.0129008213703134e-01 3.4145655284612553e-01
      1.8186971753628326e-02 -4.4868061766951528e-01
      -2.0983239583929209e-01 -7.4665881734817460e-02
      6.0747801549743441e-01 8.2896886106226542e-01
      9.9096907155356975e-02 -8.5995743935915248e-02
      -2.4734176008925399e-01 3.6648009353776145e-01
      -8.7008544594019943e-01 -1.1244202141705506e+00
      -3.2296184743870054e-01 -4.3850205596840253e-01
      -1.9787692257154949e-01 3.7402649600758814e-01
      1.5112259224201066e-01 5.6930734777026559e-01
      2.3076587223138115e-01 -4.5613661785010468e-01
      7.4002570262199396e-01 -4.9724033503009279e-01
      -2.5448842059481164e-01 -5.4533679034417148e-01
      1.5657057747959927e-01 -3.2761658698806023e-01
      2.4691917511606167e-03 2.3964432715006270e-02
      -2.9031861536380860e-01 5.1609259935446973e-03
      -1.5331659281228757e-02 8.1472068333429548e-01
      -4.5533600506091154e-01 -4.5258077862607049e-02
      5.0018669195833332e-01 -1.1892302156427212e+00
      1.8532596678277963e-01 2.1509690054964636e-01
      -5.1124772118936501e-01 8.3505493690553212e-01
      -7.1786590317387466e-01 -3.4176958238615035e-01
      6.4222176575463219e-01 -7.0900683502321565e-02
      8.9435269370288839e-01 6.8637108132862612e-01
      4.1559252237048672e-01 2.4872902391449833e-01
      -1.2127007503313478e-01 -1.0349366679814871e-01
      -1.4325135093071203e-01 2.7958575942186364e-01
      -3.0921714774721676e-01 4.5309083454138122e-01
      7.3559957520218300e-01 -7.9871448088618333e-02
      4.0084665419659676e-01 8.0231019512985530e-02
      3.8394140214109712e-01 -1.3000990029094817e+00
      2.6972122539496459e-02 8.6290792566012642e-01
      -7.6012530228257258e-01 -7.3597166797780755e-01
      -2.9573462904845915e-01 -4.4706344087758232e-01
      -1.0856056316716236e+00 -2.0129400399055797e-01
      -1.3100327040864375e+00 5.1749261783925722e-03
      -3.8193111755744630e-01 -3.8571502720248835e-01
      -4.3720303502542834e-01 -1.5266585521212298e-01
      -3.2940192060651213e-01 -8.8819437190893191e-01
      1.8981583835681531e-02 -7.1139427800713306e-01
      -1.0239707178201049e-01 4.4342387731319183e-01
      -2.2163690741027472e-01 1.7611890006762512e-01
      1.7001642014065206e+00 2.9895036645819842e-02
      -9.5687007046328065e-01 -2.4592740732771873e-01
      -9.8253647090777829e-02 -3.3495382540093965e-01
      2.3619835403066638e-02 1.5029028288699471e+00
      -1.7089281157540240e-01 9.7764267860646747e-01
      5.3728395719176769e-01 1.7839601128862775e-01
      3.1352607058904436e-01 3.6746363911249080e-01
      2.0781139952471842e-01 -5.4001195781551059e-01
      1.9555798364664065e-01 -3.2446792371347788e-01
      -1.6091398802039747e-01 -5.2064658390935781e-01
      2.6239274004155710e-01 1.6573847702109354e-01
      -6.7505242672091986e-02 4.1116353632188539e-02
      6.4560119756961731e-01 3.3812381211616460e-01
      5.6473367700979460e-01 -3.0304951453313905e-01
      6.7541881711933349e-01 -2.0868222039154460e-01
      -6.5817911935400630e-01 6.2898332155797454e-01
      1.4699515344752082e-01 2.7357046944063662e-01
      -4.9012253738945288e-01 5.5061913845799115e-01
      -2.6114192749194137e-01 1.1224195140806428e-01
      4.1660563758318564e-01 -2.8495238637437070e-01
      -3.4115477673338312e-01 -3.0627477554518872e-02
      -2.0178824266752363e-01 3.1852123346913175e-01
      1.3334076746562178e+00 -5.5143086888824722e-01
      -7.5205822821505078e-02 -5.1071631366592075e-02
      2.3011964934285495e-01 -8.6864473491845462e-01
      9.4572316700171036e-02 -3.8709372963395067e-01
      1.9288378829862735e-01 -4.2654602500047906e-01
      -3.6186927912712702e-01 -5.1140534729110765e-01
      5.3973685971335350e-01 5.7945116014824313e-02
      2.9082894518112086e-02 -1.0521137273811190e+00
      -1.3214363287103592e+00 2.5770323821104357e-01
      3.2216291870077823e-01 -4.0682022035168164e-01
      1.8103415664366668e-01 1.8041776716947755e-01
      -2.8268318442225793e-01 8.8727511759850927e-02
      -9.9376421464811548e-01 -9.5002385069491579e-01
      -5.3773784656665813e-01 1.5967072535010429e-01
      7.0857210976454343e-01 -4.5127500245330354e-01
      -1.1670426118920052e+00 4.0335228578252053e-01
      6.1438480855492639e-01 9.3850516982147719e-02
      -1.0769465660824865e-01 7.3377371284067128e-02
      7.2914589688884077e-02 -5.7855832633140036e-01
      -1.5040950018144930e-01 -3.5414563757008966e-01
      -4.7237464608702323e-01 -9.6016408795505959e-01
      6.6027598606856419e-01 7.7246157273360538e-02
      -9.0685464106556424e-01 2.9022284802335080e-01
      -2.7387947707488658e-01 1.6595943678029641e-02
      3.5395221201027910e-01 5.3020639946051429e-01
      1.4028646136477587e+00 1.5833299800656347e-01
      -4.5652090495037695e-01 1.2916005258752913e-01
      -2.5739879254924558e-01 3.3803122811916647e-01
      7.5158522836356390e-01 -3.7268747977553945e-01
      4.3466480163199495e-01 3.0193558830346610e-02
      -4.5010720402235443e-01 1.5812647944095100e-02
      1.2836934057618823e+00 -7.8994895481559169e-01
      -1.4320662083981836e-01 3.9667605676625217e-01
      2.3893874291773035e-01 1.3800600961058049e-01
      4.9719414047555888e-01 6.0059860194037562e-01
      2.4347632194680108e-01 -5.1153264651786257e-01
      -3.1916773486076314e-02 1.7701182308161342e-01
      -1.6365614546663423e-01 -1.3580818730253352e-01
      2.4404320613385763e-02 1.2931398044541507e+00
      5.9796771463891640e-01 1.3898601227454124e-01
      -2.7175798420239144e-01 5.0708139682681352e-01
      2.1467284396492512e-02 -3.7927095721158310e-01
      -2.9101434959958489e-01 -1.1249059291711581e+00
      4.1258012456542348e-01 -2.8708656339250732e-01
      1.4192914928116504e-01 3.3349779640589106e-01
      1.1024386978088663e-01 -7.4049157435443951e-03
      -2.2502371697863419e-01 1.8169056834746522e-01
      2.9843829390077242e-01 -2.3660437756985903e-01
      3.2706789991829793e-01 7.2760572654063826e-01
      3.2261971235069326e-01 6.3285298200955953e-01
      5.0453032564513700e-01 -1.8493163454317993e-01
      1.7520792517116102e-01 -3.8341856113445177e-01
      4.6801853344581745e-01 2.3334002218510061e-01
      1.8977229059165319e+00 -7.9523896237066585e-02
      4.8917175232462190e-01 4.7544057096932013e-01
      -3.0766263028490659e-01 -4.2295040448486121e-01
      -7.5346377041331281e-01 -2.4579881277172935e-02
      -4.5588475238504478e-01 -6.0399327723856622e-01
      -3.9756285276947922e-01 -1.8568368174399438e-01
      1.1019413075023083e+00 -6.0820219997653413e-01
      6.2930053908953121e-01 1.9684379423736001e-01
      -5.2878849348956557e-02 -3.9935919835973485e-02
      -4.7514096532383387e-01 -8.8210674067138273e-01
      -4.4309915228434149e-01 1.1874697238730288e-01
      4.3185956850077101e-01 6.3858937704023455e-01
      -8.7747384069664913e-01 4.2203358350249243e-01
      5.9785936564216491e-01 3.9336012320885683e-01
      -5.6192951025161614e-02 -9.7641713026700078e-02
      3.6884362046045666e-01 -5.2012280715805592e-01
      -1.5137032634353423e-01 -9.4506799490492038e-02
      -1.5174423178073598e-01 -4.0267962660667356e-01
      4.8063184138122317e-01 2.9297843716766653e-01
      -9.9786244113348063e-02 9.9654655643388712e-02
      -3.3995157255032765e-01 -6.7905179389080839e-01
      -1.0716432284805563e-01 -7.6987988686703324e-01
      6.3705626849871888e-01 -5.5527829306690935e-01
      -2.5224936291323075e-01 -6.5864934382492002e-01
      2.4450225334022543e-01 1.8967740124387639e-01
      1.0175031690156140e+00 -6.7589433157617296e-01
      -1.3537060854714753e-01 -1.4560029835949001e-01
      1.4419746567595057e-01 -6.2732341066735808e-01
      8.0047436969170771e-01 -7.4044431951901712e-01
      -8.3273529894484551e-03 7.0037856470009952e-01
      -1.7215451819395048e-02 2.5443663833224592e-02
      -2.7511734040303482e-01 -3.9822823987324629e-01
      -4.9235072249557882e-01 4.3493453154600453e-01
      -2.5763592895737675e-01 -3.6493313608877621e-02
      7.9370597388411990e-01 -3.8419325162761520e-01
      1.1434046405414693e-01 -3.8720745781251836e-01
      8.9127217296505856e-02 -3.2370987976614718e-01
      6.8680769517216211e-01 1.3564109965837728e-01
      -2.1622342802218447e-01 -4.2677138077468935e-01
      -2.5579168973001787e-01 -5.5499074574997875e-01
      1.1337858399136812e-01 -2.0207053266490469e+00
      -3.1575650022513502e-01 -1.2422123391502584e+00
      -7.0103059238319676e-01 5.5963857316816712e-01
      -8.4372814441100885e-01 2.0504260732627544e-01
      -5.2557159833304029e-02 -9.1814497789106136e-02
      5.8124832211576050e-01 -6.7595096238427210e-01
      4.2772335043789973e-02 3.2537374758294713e-01
      -1.6855496325254618e-01 7.2503338062387665e-02
      4.3148010537889531e-01 3.5583473683486655e-01
      5.7781478235827821e-01 -1.3844831632271253e+00
      3.4255303646623952e-01 -4.6462482077995776e-01
      -9.1229628471869550e-01 -8.2837939271076369e-02
      -4.5326275222610174e-01 -1.1097352476813744e+00
      -1.1405084930780436e+00 -1.8523945804070610e-01
      2.4838792973902851e-01 -9.7459529155941449e-01
      -5.3134963058516282e-01 -1.0723338238469034e-01
      1.2814080720272760e+00 -7.2172994700914361e-01</_>
    <_>
      2.4156622220905380e-01 3.9017577523448455e-01
      2.6859981781466280e-01 -8.1749356298960393e-02
      -9.6763351372691434e-03 3.4637309424965172e-02
      3.8324658905499648e-01 4.3081009605114567e-01
      -9.8901414149499808e-02 2.2805660173097367e-01
      -2.1133971357919162e-01 6.6107744037604568e-02
      -3.0406578368190129e-01 1.8989834011714706e-02
      -1.7710717913323928e-01 4.0273378935872634e-01
      3.1037823488487003e-02 9.1846532829022415e-02
      -1.5420405890502455e-02 8.0189812894906135e-02
      2.3729618155830735e-02 1.3546024040059745e-01
      -2.2721645598307295e-02 2.3869416285447689e-01
      -2.1620442675593207e-02 -1.1770473535615250e-01
      -7.0999132977360185e-02 -7.6005876981348322e-02
      7.9577500841819221e-02 1.6055118846392280e-01
      4.9525821737698671e-02 2.3181436854393406e-01
      -4.3223743309048707e-01 4.4802318360005283e-02
      2.2565155452633839e-01 2.9485835779430886e-01
      2.9671665614932075e-01 -1.5383799645073529e-01
      -2.5171238015772956e-01 6.8372828725314208e-02
      -4.4300827410484932e-02 -6.2886370183106291e-02
      -6.6852569357156860e-02 2.9221161372330991e-02
      2.6539961030700970e-02 -1.4765745695236225e-02
      -1.3933540789234608e-01 1.5651477810111730e-01
      -1.2484607084371081e-01 1.8649882323604136e-01
      -1.8770517667025123e-02 -3.0822968060418787e-01
      3.2964374426110402e-02 2.6563624008149371e-02
      -1.1101033731148799e-02 -1.3165531193459312e-02
      -2.2593431425919290e-02 -4.3108753885742024e-01
      1.0040922113366285e-01 1.1832376033967033e-01
      -3.0617665928218872e-02 5.7706010469857662e-02
      -3.3456245933249001e-02 1.7167364633880411e-01
      -1.3637460008087240e-01 -1.3843066625002634e-01
      -2.0967268134145168e-02 -3.5636662405926917e-02
      -9.9305625233928274e-02 -8.2850147520588224e-02
      -1.9093013750330876e-02 7.8007132155920464e-02
      -2.0822625932358476e-02 -6.3953360364772810e-02
      1.8746906956267732e-02 -3.4917250964712161e-02
      2.3568985217569022e-01 -7.1055901492440246e-02
      4.9299667291933550e-03 -5.6487126261449590e-03
      2.8299546178394943e-02 9.5340383934414852e-02
      2.6506638616894573e-01 -3.4550228612216044e-02
      -1.2114151185210274e-01 3.6980740012957918e-02
      -1.0881188500306291e-02 1.0714863256102115e-01
      -6.1505521357905511e-02 -9.9413196667468132e-02
      1.8423741104959403e-02 1.0623478993435834e-02
      4.4733397747683083e-02 3.9013097973873798e-02
      6.5945864523559869e-02 -9.5516971334470915e-03
      -4.8236120691873462e-02 5.1117909651523914e-02
      9.3243596202095699e-02 6.0775695182624843e-02
      2.9444615136734239e-03 -4.6653345828638157e-02
      -6.3795887830242565e-02 -3.3715868480182237e-02
      -9.2967371222186096e-02 -5.2106661555883685e-02
      3.6960177145151180e-01 2.5263709051799232e-01
      3.8634555639976615e-03 -4.7672044516425933e-02
      3.1431681877294365e-02 1.3972478723548355e-02
      -8.1508461594763593e-01 3.2815665432494268e-01
      -1.1889496588107547e-01 -9.1394710493639522e-02
      -1.0469126590766056e-02 3.5578114236307530e-02
      4.9962234912093138e-02 -3.1497993954854975e-02
      -4.4928773382046996e-02 3.5655310700146964e-02
      -4.9981663837597251e-02 -3.0764182568891026e-02
      -3.5844379515914619e-02 -9.2317758734626360e-02
      2.2612336705131734e-02 -2.4979410577620592e-01
      9.9265572333998353e-02 -2.3983434550412828e-02
      -3.1279909579337940e-02 2.1717678674457314e-02
      5.5125553979040931e-01 1.8665194022829906e-01
      -2.7203430353452146e-01 -2.1603247612770571e-01
      8.6445321096161085e-02 -7.2618939755520959e-02
      4.8570303332745440e-01 -3.3912383753523595e-01
      -2.4561387321449935e-01 -3.6526003966050533e-02
      -1.0465905517739132e-01 -8.4025613951112785e-02
      -1.3769561018236123e-01 -8.7460168130610111e-02
      1.0855567381079864e-02 -8.9051001784330702e-02
      -2.3630982346113252e-01 -5.0318195557812447e-03
      -6.8481942532696183e-02 -1.7108855482036595e-01
      -2.2700119611988445e-01 8.7882640969003598e-03
      1.5254288711104680e-01 5.7458656413933704e-02
      8.2840846278285377e-02 -6.3565876669105251e-02
      -8.1740776765695758e-02 1.0207906983820753e-01
      1.3524968153182010e-01 2.4600302208080921e-01
      -2.4210247207865263e-01 -2.0541457423081735e-01
      3.3725266098133233e-01 1.5378263597089364e-01
      -5.3217672096290372e-02 -5.6246354031750413e-02
      8.9146001470359806e-03 4.5498780965370572e-03
      -6.3514258429439238e-03 -8.0719385316644535e-02
      5.0624128905927046e-02 9.2759823706663386e-02
      1.7235614519180381e-01 -1.4045541565656500e-01
      1.5759910083817902e-01 -2.3917910444470344e-01
      7.4785637080822379e-02 9.1148947302568104e-02
      -1.0401253936338489e-02 1.0741971640082915e-02
      -4.7544533710114562e-01 3.3177450418936952e-02
      -3.7948301007774840e-02 1.0874353002148687e-01
      1.8717070580009812e-01 1.0481874527944539e+00
      1.1679983538555727e-01 -4.6451761395597213e-01
      -2.5359552989157336e-01 -6.7673378099772488e-02
      -1.2513580531894397e-01 -5.4012446629431984e-02
      -1.3762243342268688e-02 -9.1466808882894643e-02
      -8.9889151821718694e-02 1.2472881228253784e-02
      -1.3702550981449818e-01 6.3598478381830650e-02
      -1.6596613758619286e-01 -5.9160709498300190e-01
      -1.5604583518303622e-01 1.4246535269594510e-01
      2.1207490156105110e-02 1.9203734759764640e-02
      -1.6966032665956182e-01 -1.8552593365725462e-01
      2.5379497075594937e-01 -4.0613202036129764e-01
      -1.5424699929514837e-02 3.2025699345649430e-02
      5.3803647286387930e-02 2.7760961112526378e-01
      -3.7281810620338368e-01 -4.3026184426407621e-01
      -6.0042208670427019e-02 -1.3142486392011729e-01
      -2.2446339457255654e-01 -7.1953788693333631e-02
      -3.7770099348106871e-02 -1.3668363522666560e-02
      -7.4564278530686451e-02 -3.5939700926106261e-01
      1.0871366285562900e-01 -8.3796657272124528e-02
      -4.0420478143464988e-01 -2.1196121849326632e-02
      -1.2462674065753285e-01 1.2348101994582154e-01
      6.4106201971706231e-02 -2.8415177333288066e-01
      -2.5302616680823076e-01 -2.3405567507172317e-01
      5.0901614229256853e-01 1.9644744212857940e-01
      -9.5094248712674134e-02 -2.9388725867254656e-01
      -5.5351466323291743e-01 8.3684828133537059e-01
      8.5116937265311041e-02 3.9120038231623532e-03
      -1.4608116463159730e-02 4.0408954457596585e-01
      1.2904844744136021e-01 1.2063447447390558e-02
      -1.7450958516059686e-01 1.5193057506168436e-01
      1.5022371991320402e-01 5.7417789979730315e-02
      1.6861204690654238e-01 -3.5100922468881068e-01
      4.9048034392552375e-01 -7.9376984487900773e-02
      -1.7954066515873501e-01 -1.2491094981416528e-01
      -1.7300810645416248e-01 -1.0648032348656287e+00
      -7.7118299609876234e-02 -2.5225951808098801e-01
      -5.3402492446506689e-01 -5.0235692908683349e-01
      1.4979947573633927e+00 3.9311426615915901e-01
      4.9283226205312014e-01 7.5449577376750898e-02
      3.5666988357595540e-02 7.3818735247521722e-02
      1.1319367404975089e-01 -4.7191289779929264e-02
      5.0636316592151107e-02 1.1596897669192853e-01
      -1.7271695283048785e-01 8.2700198303566883e-02
      -3.1433300749476006e-01 3.3203457053295971e-02
      -4.0971143198818061e-01 -2.6242504625895179e-02
      6.3514466733065669e-02 -5.0828416445480570e-02
      4.1582740948621383e-02 -1.2647568690110414e-01
      2.2480416662286978e-01 8.3993706770999224e-02
      -1.0525804830852550e-01 -8.6818520174190977e-02
      -6.0936948404040987e-04 5.4752086930289556e-01
      4.0817011147813215e-01 2.1904775527493492e-01
      -9.3300712114939469e-02 3.1900539911108715e-02
      1.2077569761183389e-02 -2.2386939143301904e-01
      -7.3525572728320360e-02 3.2791363722070546e-02
      6.0182103850755272e-02 -3.5771152106091886e-02
      -8.2747040106328121e-02 4.3926909938649415e-02
      -2.7529710160002465e-02 -5.0172497846043856e-02
      -9.0077034844453938e-02 5.6883936602365112e-02
      4.0193261313583827e-02 6.7308703208888487e-02
      -1.8180104184309953e-01 -2.7263079548102396e-02
      7.8732031548385276e-02 1.5108014389317173e-01
      -2.0431898280329368e-02 -5.7930118887907448e-03
      6.5371996383897235e-01 -1.4735055287630111e-01
      5.4606599321467120e-01 -1.3954750020821949e-01
      1.5092838501200377e-02 -6.6171106849544012e-02
      2.1191400638608034e-02 -3.7128805376470272e-02
      -3.2547594693913197e-02 3.6500621999309146e-02
      -2.3742000672744200e-02 -2.0774686743754192e-01
      1.0030041464533754e-01 5.2545464886883227e-02
      -6.2594196070592445e-01 -1.3835245937650002e-02
      4.7567099674400183e-02 -1.5572438056228596e-01
      -8.2054688915727148e-02 5.4225269279604686e-02
      7.5078969158786013e-01 1.0093718851814748e-01
      1.2809861404756585e-03 -1.0165537819595960e-01
      -3.4552909351255974e-03 1.5113126558627460e-01
      4.0337851817971376e-01 -8.0899709546335286e-01
      -2.7206510513646914e-01 -4.9498552574368297e-02
      1.8301585126176790e-02 -4.0690621576638153e-01
      -5.6259081397402620e-02 -3.3784476789982372e-02
      1.2542382421557838e-01 -1.1761742867647344e-01
      -9.2357856788187670e-02 7.9817388549556750e-02
      -2.4203008222983536e-02 -3.3188819184430796e-01
      -6.0610138430305917e-02 7.7920438825955937e-02
      -2.8807047198239469e-02 -2.2534977224981344e-02
      -2.0274348980270868e-01 -5.4152377334765400e-01
      1.2190011685743064e-01 2.6318501786237297e-01
      -1.1446585506615742e-01 9.1445354255594746e-02
      2.9631955506305135e-01 3.5283386663429550e-01
      3.9649090295118677e-01 -1.1347176115867351e-01
      9.5155126976769248e-04 -5.3747865878554568e-02
      -1.3366030656771666e-01 -5.5162729283862261e-02
      -2.9691072962277618e-02 5.2995211612022454e-02
      -5.0682283826767899e-02 -1.0360407031682470e-01
      -5.0051852399123055e-02 -1.7126341404818254e-01
      3.9095467503610742e-01 -5.3038160380350174e-01
      6.2544228078691602e-02 1.6908127189840907e-01
      3.2941641674666495e-03 -2.5186786283545054e-01
      -9.8191664857942937e-02 1.2692671104282990e-01
      9.7000457345525135e-02 1.2973944477677593e-01
      4.1248677197358902e-01 1.7439859828786147e-01
      -6.9451691888714667e-02 -6.4519956135011125e-01
      -3.8166909960730611e-01 -6.7988288009506098e-02
      -1.6915345502628965e-01 9.9419805574515990e-02
      -4.2158740964925820e-02 -8.5853023998372011e-02
      -9.7151270034480736e-02 6.0776463421177845e-02
      -2.9033579271041915e-01 2.3043548731539693e-01
      4.6537527838079677e-02 7.3485728645654100e-02
      1.1068786268601524e-01 -1.7141187921071763e-01
      6.9771189925046204e-02 3.9192543432175847e-02
      5.5039841029822312e-01 3.7312862617424586e-02
      -1.7374901728915232e-01 3.8864002148175408e-01
      2.2283005177659021e-01 6.4611906956586834e-02
      -6.3137105685404105e-01 -8.7510607918491368e-01
      -5.9706180494219185e-01 5.3596631060115540e-01
      3.4849904823655624e-02 1.4113497501367225e-01
      4.9801376905123484e-01 1.4199998120169866e-01
      6.1351848892266185e-02 -1.4210004462734063e-01
      2.2776863424637850e-01 3.6418078325664655e-01
      -1.4063033770965760e-01 3.0449470135864171e-01
      4.3271105742358218e-01 4.1050544086402529e-01
      -1.6134934455243771e-01 -2.7697154313214417e-01
      -1.4113400730574427e-01 -3.5559946255343355e-01
      -2.4855447492994970e-01 -1.3884119939012743e-01
      1.3551870494022833e-01 -6.0165880394420523e-01
      -7.1790087690386439e-01 -4.9688743690331036e-02
      -2.7939130501076703e-01 -4.6128423523598894e-01
      3.1879683280695126e-01 1.4359513355882356e-01
      1.2766897104319921e-01 6.2879562809890733e-04
      7.4748288750785458e-02 7.9468888071135793e-02
      2.6312717930340440e-01 -1.7955018139606724e-01
      3.5376343329011101e-01 -4.4231039434292879e-01
      -2.2808274091147336e-02 3.1025824931507316e-03
      -6.2097479519957845e-02 3.4782252273114232e-02
      -3.1703107882552053e-02 -8.4226821427922493e-03
      -1.2209668121019629e-01 -3.2053419350263679e-01
      6.0211543752300971e-02 6.3717610598943250e-02
      -6.4167484069351424e-02 -2.0490717014255522e-03
      2.8375521511112056e-01 1.6421383204766094e-02
      -1.8303136422755664e-01 -1.2983315080188623e-01
      8.7165426899449752e-03 -6.0805299275847574e-02
      -2.3447473337259623e-02 -6.6490975882895112e-02
      -4.5728470805801835e-02 -7.8057286728442825e-03
      -5.8801915017566805e-02 -8.0618530290027288e-02
      2.0938905173057704e-02 1.4342631345225501e-01
      -1.8328838163930397e-01 2.1189413619318653e-01
      -9.6321440917615977e-02 -3.1340272083013543e-02
      3.2853737405410068e-03 -2.2399554112720851e-01
      7.4733735873884788e-01 -7.7253154097979365e-02
      -1.4251417148940959e-01 -3.1979006448712627e-01
      -7.7244251370976416e-02 -3.4787886482308922e-01
      -1.8238653466708016e-01 -2.5768340391859207e-01
      2.7487331912782681e-01 8.5691251969607959e-02
      1.1934471405622154e-02 -9.1080377761937836e-02
      -1.8773528091859345e-03 4.6512721438504663e-02
      1.3047952531811877e-01 -7.6770249385382780e-02
      2.0528182960500979e-01 -1.0033616031630750e-01
      1.1679883703037884e-01 5.5065720584832056e-01
      6.4388611705908733e-02 -1.0318745518900582e-01
      -3.0502401780157511e-03 1.1854993072943486e-03
      -2.0644607394803677e-01 2.8566538892944088e-01
      -1.8892317605177056e-01 1.6228187118788095e-01
      -6.7097501839529991e-02 -7.3806608013576400e-02
      -2.7220648211818133e-01 -4.6350958145241489e-01
      -2.0362843455053251e-01 2.2346793662041378e-01
      1.4482003120320604e-02 7.3338318617407083e-02
      5.6691973356246927e-02 1.2813574515794968e-01
      -3.4189366586434518e-02 4.2850587578225366e-02
      6.8700649971575774e-03 3.1333601945158701e-01
      -2.1611601598563214e-02 1.1698926262653957e-01
      -4.8117787835999781e-01 3.0385240383513146e-01
      -3.3375262094757635e-02 -3.4862826065543362e-01
      -1.3173788429139732e-01 6.3139956029420530e-01
      2.2133485229847130e-01 2.8128275653680557e-03
      -4.3287802863414404e-01 -1.5645535726254789e-01
      -1.9219944600670497e-01 -1.3836039135719211e+00
      1.6509178139889774e-01 -5.2935388700868269e-01
      2.1173037135808870e-01 7.4049345460695415e-02
      1.6727606093062605e-01 3.1012393264959626e-03
      1.6770998800015063e-02 1.0789802677087483e-01
      1.5427390673683308e-01 -9.6473877519878348e-02
      1.6169600886753432e-01 -2.5339916357133424e-01
      -1.1173917546439717e-01 4.1282811267071606e-01
      -1.8925543800023517e-01 -2.1660831772769878e-02
      1.0501448868190261e-01 5.3064096661407760e-03
      -5.3907209414045831e-01 -6.8932400798142657e-01
      -3.4997916034531590e-02 4.0144494878264292e-01
      1.1974789968392524e-01 -2.3241565069897552e-01
      1.0393560143508536e+00 -1.4324355034573596e-01
      1.2511908632656921e-01 -2.2407465581984820e-01
      -9.9398562143060559e-03 -1.1329993761071110e-01
      -1.1926967241625708e-01 5.2669839679602686e-03
      -7.3645750452945954e-02 -5.3371155788479625e-02
      -1.3094088671093979e-02 -5.5884980059278264e-02
      1.0571569401440253e-01 -7.6090487258801312e-02
      -1.3916276333814098e-01 -2.1436797051339773e-01
      8.0483667586475419e-02 4.5399294121084240e-02
      2.7920056326975872e-02 -1.5045968902365911e-01
      8.6264862673355105e-03 5.3996934952920621e-02
      1.9944596363563424e-01 1.2383163841265382e-01
      1.5669371583755884e-01 1.4794340852151130e-01
      -5.9252260852498781e-02 3.7226743587842587e-01
      -3.1713180577368369e-02 -6.3300612000278061e-02
      -4.7064530009312176e-02 -2.9340435188517318e-02
      1.4235956086144700e-03 -4.6815983536599173e-02
      -1.7565307266482227e-02 4.4509649070859671e-02
      -7.7571046348895348e-02 1.2828578421701484e-01
      -1.8276533800351105e-01 -6.3617240043282147e-02
      -3.5514631751193848e-01 9.1882998505711772e-02
      -7.2674817651361148e-02 2.3444113777674944e-02
      -3.8743232645744374e-01 4.3607817229984946e-01
      1.9306855686755103e-01 -1.2277496116100815e-01
      -5.4338623749085761e-02 7.6684065981736743e-02
      6.8451637751648275e-01 2.0143366393643261e-01
      7.0962436892663960e-01 -4.3755389812480017e-01
      -4.6275748084585309e-02 -2.0562241147947782e-01
      -3.7777717127964655e-01 -1.2541610700325595e-01
      -7.1370405001994791e-02 3.2794137003220321e-02
      -1.4949493322825483e-01 -2.6044454588296656e-01
      3.9884458358392487e-02 8.0690692352780188e-02
      -2.2972351142691558e-01 5.2147987176558899e-02
      1.8062357995583974e-02 -8.7366363244316472e-02
      -2.4542749325652577e-02 -1.8470851025813922e-01
      4.5483195248412922e-01 1.3679822732258320e-01
      3.3089748686184903e-02 -1.1689759807830127e-01
      -2.8204172598145217e-02 2.8774884186335420e-01
      2.0908542558534665e-01 -9.9604827051694905e-02
      -1.2903653628321295e-02 1.8693948412784555e-02
      7.9721838478596249e-02 -2.3716685587538963e-01
      -5.0962238018943826e-02 3.0370429636798552e-02
      1.1251853917109578e-01 -1.3895018053582997e-01
      2.2568755834042353e-03 -4.1024318457680085e-02
      -3.2236925649928888e-02 -2.2092518241113540e-01
      -1.0401777716569818e-01 6.2334551368061979e-02
      -1.5509773848489133e-01 -1.0225007696782848e-01
      4.5889547977236832e-03 1.6499264687165707e-01
      1.4695023912086796e-01 -4.1117413570155165e-01
      6.2449257625569993e-02 -6.4740870696468139e-02
      1.3457961378556016e-02 6.1701151617746475e-01
      -3.0349678448479422e-01 -2.1831639722706309e-01
      -4.1429428432237125e-02 3.0108588439873969e-02
      -9.6199092524394028e-02 -7.4729102123463731e-02
      5.8756586653329092e-02 7.5642053231720421e-02
      -1.0859290947183735e-01 -1.6330610472469648e-01
      -3.9870385144708802e-02 4.3741154122987957e-02
      9.5046192279073394e-01 -9.6696629639959647e-02
      -4.5453246402884021e-02 8.0154972800957333e-02
      -1.2686594438205136e-02 -9.5432141691680031e-02
      3.4346942688898239e-03 -7.1709794215352132e-02
      2.8516031341495524e-01 5.1767600686850783e-03
      2.4180925898473896e-01 2.0934927388483102e-01
      -6.8268248495473430e-02 2.5592465047241303e-01
      2.7927086671667867e-01 3.6075225511513924e-02
      9.4670821243789832e-04 1.0054122212323914e-01
      6.2435768343995057e-02 2.2537331373892817e-02
      -5.6819910908936615e-02 2.2928738659592388e-02
      1.3203388468602045e-01 -5.1144520557051664e-03
      -7.7455377067694814e-02 1.2686950178632087e-01
      -2.6962014051225269e-01 7.3528614012240659e-02
      4.9304212648944190e-02 -3.2312707842264761e-02
      1.3690818363023943e-01 -1.4676071704400934e-01
      8.6903797752144810e-02 -5.2444995183576287e-02
      2.1634457566705378e-01 2.0232766262615864e-01
      5.0125391496568283e-01 1.8657078931712118e-01
      -3.7912156330398621e-02 -2.8071216291186696e-01
      -4.5830652311197199e-02 -7.9906258371067934e-02
      -9.9342771993213702e-02 -1.6745074807551188e-02
      -2.8086645706515052e-02 -6.7046339874209326e-02
      5.6731896553353011e-03 -1.4465772964298687e-01
      1.3312269188723677e-01 -5.5999057434235673e-02
      1.4046235949141319e+00 -2.7904890009175165e-01
      -1.0492730072661301e-01 1.4288580272585785e-01
      5.5041687631260862e-02 2.5284855495987898e-02
      -3.6768049091978461e-01 -2.2216714908112131e-01
      5.8108063666156395e-01 3.3279257285864194e-01
      2.7674120007349301e-01 -5.6573455878500788e-02
      -2.4442253319719870e-01 4.3055764497173615e-01
      3.0586452208652298e-01 -2.0596975367729302e-02
      -8.1935501512610722e-03 4.3408177349733801e-01
      7.2630554883401505e-02 2.3037289065206700e-02
      -1.7944272736386283e-01 2.6669910100505495e-01
      2.2040660573306439e-01 4.6213274603726179e-02
      -6.0688346944129570e-02 4.6834755734452299e-01
      4.3446536257741759e-02 5.8630499814486675e-03
      2.0050047416649347e-01 1.0118024381186112e-01
      -3.2528524412415866e-01 1.3875020868214324e-01
      -9.4193702703715635e-03 5.1620055229894646e-01
      -1.2679260372713601e-02 9.2635747483950551e-02
      7.2597201606652295e-01 -4.7806651728690884e-02
      8.2630071942779126e-01 5.6586290867291035e-02
      2.7409322936113010e-02 -1.0133499733792410e-01
      -4.5075829287276950e-02 -1.6554684646823661e-02
      -4.7576878507822129e-03 -2.3229478845311451e-02
      -8.9802687340656377e-03 -5.8600078928967694e-02
      5.4303319297090182e-02 1.0503579705572008e-01
      2.3415508819783049e-01 -2.2598725264281819e-02
      2.7227800682182112e-03 -1.8233971776769153e-01
      -7.4247908963998882e-02 4.6452027365403610e-02
      -2.5258547794249103e-01 1.1717629544779887e-01
      -3.0308722806631050e-02 -3.8490495781406203e-02
      1.0159008567195812e-01 3.8940435902648629e-01
      9.2784312749031961e-01 9.7799020434477968e-02
      -3.8453438535678503e-03 -2.5487318580209729e-02
      6.9521164851590697e-02 -2.0936709034579193e-01
      -2.6650722779193260e-02 2.1102276935075874e-02
      1.0463586912910997e-01 -1.3688092696426418e-01
      4.7590319960984463e-03 1.4700633750985379e-02
      -1.3827108380225652e-02 -2.7178121818878903e-01
      -2.4918029829882243e-01 4.3978793313217419e-02
      -8.0935707578250575e-03 -7.3951226138648171e-02
      -9.1330124068687055e-02 4.1809312697241413e-01
      1.6188935171096971e-01 2.2325301430254314e-02
      -1.4949583093414992e-01 6.9428887314739229e-02
      2.2036946575568464e-01 6.5699525624663291e-01
      1.2222696992192206e-01 -3.8178752675595762e-01
      -9.7553896373190237e-03 -2.8037997311924218e-02
      -2.7975896609233691e-01 -5.2066275286734506e-02
      -2.5471777292872772e-02 1.3586523263433603e-01
      -1.4715208637479268e-01 -1.6831117231503723e-01
      3.0764267673097034e-02 -1.9421922819598703e-01
      1.5033441276181594e-01 -3.1028799756112074e-01
      1.0414483085461326e-01 3.6351345837908211e-01
      1.4526812732696559e-01 -6.9392341000667351e-02
      -4.0193593032028396e-01 -2.1798791017898149e-03
      2.9032383800910683e-01 2.9714919867919598e-01
      2.9035447236243384e-01 3.6663354261828279e-01
      -4.6351802995225427e-01 1.1785952255758453e-01
      -1.8393751374567380e-01 -6.8536198827496148e-02
      -2.4982387109809825e-01 9.8373935160731132e-02
      -1.7144129435600883e-02 -8.2254989389550850e-02
      -2.5201819642274892e-01 1.7788001716971105e-01
      -2.1686978118838410e-01 2.7896934063325757e-01
      -4.7549672326629211e-02 -2.7348726351287705e-01
      -2.7403260966523785e-01 1.7837560765623080e-03
      -4.6315131818528005e-03 2.6125337718281794e-02
      4.8547075973032087e-02 3.9943261647593226e-01
      4.2995764205684017e-02 -1.4884326934757106e-01
      8.2495705837300592e-02 1.2145441973752101e-01
      2.8268522771082563e-02 3.4038499435868175e-01
      2.3669290612954391e-01 -4.9426842756042033e-02
      -2.8221144634279108e-02 -7.1650034973601423e-02
      -1.0538815524304798e-01 -2.5528811407118015e-02
      2.6881302502008243e-02 -1.3670997542352997e-02
      -8.4494599717925365e-03 -5.4433198270890777e-02
      9.5996909691895185e-02 1.6830342675765597e-01
      -4.4645007531194547e-01 1.6145840871967188e-01
      5.9273569129883436e-02 -2.1051161226525866e-01
      -6.7769059133687443e-02 -7.4013530080184942e-01
      8.9922853036840766e-01 2.6578371823443209e-01
      -4.7913035091615969e-01 -5.3653875185782829e-01
      -3.6136759579280192e-01 1.2206848654544340e-01
      3.5695061530109462e-01 4.6247913772971433e-01
      -2.0501979045945148e-01 2.2424326849043854e-02
      5.9207823936766019e-02 -5.3998225783489828e-01
      -9.6213868721024540e-02 8.0418946852495194e-03
      3.0533465850034047e-01 -3.1941281921180448e-01
      -1.5591512670583416e-01 -6.7441516163545767e-02
      1.2602969788321747e-01 3.7248774346892949e-01
      2.8011555117452092e-01 -1.2837372623350945e-02
      -3.3546552550828744e-02 3.7051853277494308e-02
      5.4941593584536985e-02 4.7359588130558422e-01
      6.3296295398601973e-02 -1.3075733762165620e-01
      1.3957714532500536e-02 1.9697460403213538e-01
      -5.7243454349676548e-01 2.4348001829534935e-02
      -3.4268928185280273e-01 4.2121271193730575e-01
      8.6648116256690180e-03 1.9563252243411025e-01
      6.3370418997864122e-02 -2.8692583139811274e-02
      8.0584241547914284e-02 2.7788714320687007e-02
      8.0845731495665513e-02 1.0809561945929298e-01
      -3.8301823685980486e-02 -1.5408673774716883e-01
      4.7251268999539252e-03 -2.1883403035415169e-01
      5.8684310644462140e-02 9.3386870538138600e-02
      -2.0132377411573983e-02 -2.3524667000384672e-01
      -5.9689621766683743e-01 1.6528676828943198e-01
      3.5848049331928304e-02 1.2628560072097603e-01
      2.8602991131655431e-01 2.4515777473248412e-01
      7.3968140208663172e-02 -1.9710308280162882e-02
      -2.8741373580216228e-01 -8.4747016279753257e-02
      -1.7808756521343896e-01 -1.1956527596178924e-01
      -6.5664299803365161e-02 -1.1683034929098315e-01
      -5.8831294627971972e-02 2.0938351242468716e-02
      -1.7728811730639771e-01 2.1437402068695022e-01
      -1.4299149205224931e-01 4.8665874903231782e-01
      -6.4618069197901162e-01 3.3290098610351426e-02
      4.0469189223572199e-01 1.6011327538317163e-01
      -1.1157142856951144e-01 7.9653061582036833e-01
      -1.0066459153866301e-01 4.1865691872342686e-01
      3.1707890334508049e-01 8.8218581034843735e-01
      6.7070209553821258e-02 -2.7056051119744262e-01
      -3.4922546253050718e-02 -1.9068800180713671e-01
      -3.4631101665632227e-02 -2.5973570456753631e-01
      -2.0209109566280589e-01 -3.6347697704271092e-03
      -1.8815195108215710e-01 -1.4917348377916764e-01
      6.5768386802852796e-02 -5.4055720350774578e-02
      3.3008165949775520e-01 1.2282529362389234e-01
      4.4181096944272757e-01 9.7263656030736348e-02
      -5.6244579383220070e-02 -1.3442865388335698e-01
      -7.7575302348368499e-02 -8.0746036034047827e-02
      6.7741216813910465e-01 -3.4428087883662750e-02
      -3.5188190717666420e-02 -1.6743954659419491e-01
      -5.1037585521998656e-02 -1.9842851085606816e-01
      -3.5993730681738939e-01 -2.1517772771260914e-02
      3.6049401774840928e-01 9.4778118474624931e-02
      1.3334743841861393e-01 9.2641735487033125e-02
      1.2014604852290110e-02 4.0017545971539899e-02
      1.1269894142439711e-01 -6.8946062449278728e-02
      1.4400456143320489e-01 -1.9781876117777947e-01
      -1.1121230670726066e-01 -2.0233648122623216e-01
      -2.8394231107333934e-01 4.3930320197805038e-02
      1.7214383113158827e-01 7.5289520795033218e-02
      5.8011527130719047e-02 -5.5316129251655188e-01
      3.1613216041196754e-02 3.6441539188746974e-01
      3.2184706164381516e-01 5.3101748123028614e-01
      -2.9208554780404067e-01 1.8082690212590546e-01
      2.3427721333685789e-01 -1.0648487250123496e-01
      -8.2476405363357083e-02 -9.4176392645169457e-02
      2.7186699091339358e-02 -1.2776644956968182e-02
      -8.7673815760567389e-02 -1.5308589990164018e-01
      9.0242951188101064e-02 -1.0706411465905626e-01
      2.5002520167459241e-01 -3.5203602761717606e-02
      -2.6937685707514109e-01 -1.4716340913907567e-02
      -1.5054296773418741e-02 -1.3543461330270687e-01
      -9.8276795014657206e-02 -1.0821705759853131e+00
      1.6923178778992351e-01 1.0209129139002855e-01
      -3.9558083992080417e-01 -1.6738390779913895e-01
      -1.0873304996058604e-01 5.4000566491140189e-01
      3.7068637493797130e-01 4.5621684917354927e-01
      -2.8336410679649709e-01 -1.7157600742804444e-03
      1.2252871876224470e-02 6.8067676225269699e-02
      -2.6459654767016092e-02 -6.2935970247808171e-02
      3.3819659280652337e-02 -1.0413931676278750e-01
      -1.1373840494642477e-01 -1.2175608759383300e-01
      8.3147646686327195e-02 5.6565280443531554e-02
      1.4893145066113750e-01 5.0190963889092936e-02
      -9.0224651330917158e-02 -2.1972628852453782e-02
      5.3302316508154612e-01 1.6651812190423559e-01
      1.3749232083271423e-01 2.0259084376268721e-01
      -4.8396723433404010e-01 -1.7779681954554427e-01
      -1.2281843654542299e+00 5.4666563627314402e-01
      2.9070059228529471e-01 -1.2457558386165272e-02
      2.0623392430621224e-02 8.8080641178718194e-02
      -3.9580516834166302e-01 -5.1450459746181440e-02
      5.9397983132921828e-02 2.1705481933114984e-01
      -2.2847718935620071e-01 -7.8647988419489279e-02
      4.0410944763269591e-02 2.3138264484099499e-01
      7.8847069006816140e-01 4.6932265665972883e-01
      -1.4105631039213301e-01 -8.0658368363173652e-02
      -5.7363446917633150e-03 9.5399791957979496e-01
      -2.4749532987706515e-02 -1.7530055012189061e-01
      1.1202585408639223e-01 -4.1577967581918390e-01
      -1.3326492039494750e-01 4.3712382493842261e-01
      -7.0740651783507369e-01 4.8528095297520946e-01
      3.6348439579260416e-01 6.4788528924138625e-02
      1.3168180714860606e-01 3.4116518199002044e-01
      9.9087929219431173e-02 5.5281992654800820e-02
      1.0711785046142331e-02 4.5552349187221043e-02
      2.3454305799806976e-01 -3.7663399240415352e-01
      -1.6376182565711961e-01 -4.6985152168872341e-01
      -2.2603526153187239e-01 8.8192950110181273e-02
      -6.3089620298035540e-02 8.7738779116832109e-03
      -1.7778040992115074e-01 3.9870675680037204e-01
      8.3748713912697878e-02 -1.5670800478899144e-01
      3.4315645776095520e-02 -1.9233984106153915e-01
      1.2072723936055471e-01 -1.3806166932953196e-01
      5.6832202176139657e-01 -1.9914186330279851e-01
      -2.9695511870207577e-02 -6.1816582647112685e-02
      -1.5331016489483542e-02 -3.7122097293738443e-02
      2.3191347268611235e-02 -1.0727599779049291e-02
      -3.1446784601267923e-02 -2.0682112589316573e-01
      -5.9109770026800568e-02 -8.9721891013147509e-02
      4.0260983850036114e-01 8.6242276730817385e-02
      1.0781535643176766e-01 -5.7327858588416061e-02
      1.6294747227995735e-02 -4.6555792636428067e-01
      1.4935306827032196e-01 1.5761731757467412e-01
      -2.1805215860721922e-01 -2.8381027097099724e-02
      -1.5595094673965769e-02 1.1299762511909877e+00
      -4.5461128917483967e-01 6.2554612257425313e-02
      -3.5145700424853771e-01 -2.3164816133082591e-02
      -5.0387093922929109e-02 4.0128188625068215e-02
      -5.3253408378911640e-02 -4.7412431299519442e-02
      -1.3367268913262630e-02 -4.0879210367146784e-02
      -1.7100695481667696e-01 -8.4273948895730491e-02
      -8.5439486635716211e-02 6.2959146924647424e-01
      -1.5432491626341063e-01 -2.0325310390640800e-02
      3.6233838221118664e-01 1.4138159983803655e-01
      -1.3622657940487296e-01 -7.6484319025746553e-02
      -1.2479222523667476e-01 4.5661326571228822e-01
      3.7210677913298418e-01 3.1226679182789102e-01
      5.2072062414226428e-01 -1.0671085158848270e+00
      -1.3715982888930613e-02 -1.8524482872510895e-02
      -4.6630691316507156e-02 -1.7216472566002144e-01
      4.3459294990719155e-01 6.2617349534546021e-02
      -4.2197308030392504e-02 -2.6534104521997315e-01
      3.0650424184731467e-01 3.5158677498161865e-02
      1.6887262051065990e-01 4.6684486001585736e-02
      2.1439888725028272e-01 1.2637590931704593e-01
      -1.0059186273010862e-02 -2.4230118848268347e-03
      -3.4011965568102813e-02 -2.2127713084272335e-01
      1.9304988027539169e-01 -3.4828769654816016e-02
      7.5562299158724880e-02 -1.0339096448621640e-01
      -1.6333090119409319e-01 7.1715385806993758e-04
      -2.4948890101722851e-01 2.0626440242049821e-01
      4.4888210009278451e-02 4.0532267128300527e-02
      3.8379548086297087e-02 9.7832098179160845e-02
      3.9301311950297613e-03 5.2622995195551477e-02
      4.7424935855327879e-02 -3.8457442957958408e-02
      4.5946798036786189e-02 -1.2126421976867774e-01
      1.8060884553105210e-02 -7.1205171246463972e-01
      5.7930440011239030e-02 1.2593606039551103e-01
      -1.0229403831440483e-01 1.2616255344995426e-02
      1.4009296095885118e-01 -4.4537622207167789e-02
      1.8100301273647590e-01 -7.7311350607430185e-01
      2.4571303569035745e-02 -4.1175875556869600e-02
      7.2179619675642659e-01 1.1682323972762101e+00
      -1.1099715868054096e-03 -6.1293524762676424e-02
      -3.1843206120028410e-02 -5.1327133771853273e-02
      -3.1779339046895710e-01 -1.4228810802941819e-01
      2.7712211714703439e-02 8.5139829023082217e-02
      -7.5108069620013221e-02 -2.0131437550686287e-01
      8.0674147082192407e-02 2.6267355920429818e-02
      5.5061326945443201e-01 2.1832914287980953e-01
      -3.4474645527190137e-02 -1.4568766571143161e-02
      -7.6431848070976655e-03 3.5465104715029844e-01
      -2.3808375308272775e-01 -2.8803549735216327e-02
      2.3458099811221492e-01 -3.1046110239505917e-02
      5.5832820501480911e-02 -4.9460719320566732e-01
      -2.5805984685246397e-01 -7.6976668725724673e-01
      1.7263277470683316e-01 3.7972200498021795e-02
      1.1970038560548492e-01 1.7336894918970031e-01
      7.4110199890176073e-02 2.7198506438711113e-02
      3.8489258396914882e-03 6.3812091791222325e-02
      1.3928894891485366e-01 -5.1859212755763391e-02
      -2.9102594458656102e-02 -7.8538985771323599e-01
      -1.7375470042554242e-01 1.0585578767828466e-02
      -5.6225947997459114e-02 1.4705128436331188e-02
      1.1115112138123853e+00 -1.6510343999101892e-01
      -7.8936489317939021e-02 -3.0542785109430542e-01
      3.6209906866965225e-01 -4.5577424347373052e-02
      -1.0100586240951104e+00 1.0934485390152968e+00
      6.1288961409359177e-01 4.6524790393486296e-02
      1.9349082712671981e-02 6.9029605548317191e-02
      -1.6626262829721839e-02 1.6589587538935375e-02
      6.1428191936961182e-02 -9.8131006421649930e-02
      1.1576818894312918e-01 -4.2878438263494892e-03
      1.2193151090759898e-01</_>
    <_>
      -4.2430745719034429e-01 2.1142348417058067e-02
      1.2911727562531050e-01 -4.5198091365067861e-02
      1.6501888375093796e-01 -5.4744836942729705e-02
      -1.0092667389452576e-04 1.2017570203700410e-01
      -2.5000383543360104e-02 1.1858294943654168e-01
      -1.9479147261487498e-01 1.7188331961451339e-01
      -7.3834036698621364e-01 6.4491343969083426e-01
      -1.0666824531390811e+00 -6.3939733106658680e-01
      2.8594824770860372e-01 -9.9759258017844332e-01
      -3.9387870752594339e-01 8.2805301669238307e-01
      -3.8436796978442961e-01 7.1604974953412925e-01
      -9.4429126726914381e-01 2.4761654520480653e-01
      -5.7964222123263942e-01 -4.5007087097595530e-02
      1.9230250190712389e-01 -2.5817375120157254e-01
      2.1642554745303663e-01 -1.5794301487324894e-01
      -1.9699486900148516e-01 3.8780316631670586e-01
      -1.1296296014211139e-01 2.4565721017174338e-01
      -4.7020117576635806e-01 4.2686039362982303e-01
      1.3844946326145505e-01 -1.1618081563310576e-01
      5.2026278006591297e-03 7.6885963539378016e-02
      -1.9711686888714691e-02 1.2276769515095867e-01
      6.5972907787139295e-02 -1.5540810233024280e-01
      8.3396686650963073e-02 -1.1717521730347200e-01
      1.8242694725278372e-01 2.6293105101929840e-02
      2.1913513130089429e-01 1.3883174019799943e-01
      -4.4617351426677571e-01 -1.3214299764793394e-01
      -2.0325158904593024e-01 -9.1494996521615593e-02
      -2.3576256368074110e-02 -1.9800229393072277e-01
      -2.6901565393870792e-02 1.5641087055333958e-02
      3.2845712045957309e-01 -2.5414624405802066e-01
      7.3542360815188695e-02 -2.2346877933824172e-02
      -2.0247353936328871e-01 -1.1719897739191362e-01
      -1.5044220704245490e-01 6.1356269116524885e-02
      -1.1568987498041548e-02 -1.6644688559191598e-01
      7.0454244190863671e-02 1.0542283652876619e-01
      1.0289976289700677e-01 1.3643057847329573e-02
      1.2269991519404413e-02 2.1501993924180193e-01
      2.7190732656272593e-01 -1.0010072410294144e+00
      9.9666189990302828e-02 -3.4195097181095058e-01
      -2.0952915636749622e-01 7.1857524504482173e-01
      -2.2047145828891185e-01 1.1979925366599293e+00
      -4.8819953682030182e-01 8.0823549861639865e-02
      -1.1155707056500006e+00 -3.5095368481184647e-01
      6.7727193370659255e-01 8.3222288468453129e-02
      4.9543331949082231e-01 2.3915481769153965e-01
      -1.9374293771552500e-01 6.9307260305015350e-01
      -1.7640362786874089e-01 4.8569774332068542e-02
      -6.8546598650191837e-01 1.0730123619620040e+00
      9.6719509924787450e-02 -1.3773671516780400e-01
      2.3448989449134330e-01 3.3754215761885070e-01
      2.9522535307590376e-03 1.0402712405254592e-01
      -2.4164056867996359e-02 -8.0537469323117603e-02
      1.0396266805713249e-01 -2.7848278690893230e-01
      2.7515216312181495e-01 1.2693603124454506e-01
      2.4884541223935561e-01 4.8232995044020494e-01
      -8.3184754906383196e-01 -3.1286109777642240e-01
      -2.2345943728746254e-01 -3.4695016892349467e-01
      3.2486204207566351e-02 -3.3898763872789806e-01
      -8.3243853926819808e-02 2.2509911026599683e-01
      9.8709439856556586e-02 -5.0919612367430944e-01
      5.4364914549551580e-01 1.8306248098332026e-01
      -4.1555612148518711e-01 -1.9156889879677524e-01
      -3.0151238326260715e-01 -5.2391250927467117e-02
      3.3343979561631647e-02 -2.6142895205736155e-01
      1.0810686493003961e-01 1.5416566680725127e-01
      4.5848089659639096e-01 -3.6681495923862739e-01
      5.0011251668414858e-01 2.3759246298163789e-01
      -5.4025499981435088e-01 -1.9402861099625340e-01
      -3.0162325864937051e-01 -2.2616545047627568e-01
      8.2938606893612321e-02 -1.8122824363703580e-01
      3.5099106200484557e-02 3.0616681890345776e-01
      3.5795279556657589e-01 -2.5964739178098900e-01
      3.6839892549791431e-01 -2.1799783165304906e-01
      -9.8976327776102116e-02 1.1051881840458535e+00
      -2.0425157066542565e-01 4.4885988345409022e-01
      1.9980933272972162e-01 -1.1914028474985043e+00
      2.2095594626843332e-01 -1.4844097841005741e+00
      5.3428450341141076e-01 -6.0666406860167554e-01
      -8.9751138029036370e-01 -7.4278342406444020e-01
      1.3273127736085144e+00 4.6926735023981497e-01
      2.6638741764461343e-01 9.4428434201105660e-01
      5.3566349082347024e-02 3.2513391066671793e-01
      -3.9784587462779554e-02 -3.2644159368035580e-01
      -1.7762395911141071e-01 9.9052330060871874e-01
      6.8074689659691190e-01 2.0057347437185738e-01
      -4.9286930162222459e-01 -1.9279917336229410e-01
      -4.3971177029455166e-01 -5.6573927024567323e-02
      1.4954954424294867e-01 -1.1281007180505767e+00
      1.3368339959726208e-01 -1.5008942505596348e-01
      4.9363987565949391e-01 -6.8049352367294103e-01
      -3.0324140074397893e-01 6.6928087396607411e-02
      -4.7364004221185821e-02 -5.5467181720321590e-01
      1.4984826674474291e-01 -2.2467347890575776e-01
      -1.2306638118245058e-01 3.7176818989757648e-01
      -8.3065105977170511e-02 6.2937136635096547e-01
      -3.9408949030093154e-01 1.6519717702802611e-01
      -1.5977988913037217e-01 -1.0297051970593973e-01
      -3.8153358143281054e-03 -2.2441982893044676e-02
      1.0683967129702707e-01 -5.2986416118104153e-02
      -4.9142976393134932e-02 -5.3624540796796674e-03
      -9.5370684973129699e-02 9.7017044046050452e-02
      -9.2998777110279346e-02 1.4522453636729818e-02
      -2.2870908144582824e-01 9.3248709788308036e-03
      2.2743156419850818e-01 -7.5981764853605541e-02
      3.8126727298236886e-02 -8.1483842009862834e-02
      -3.7069776536023634e-02 2.9319655412110340e-01
      -3.1972987025002543e-02 1.2980331237024570e-01
      -9.7946348992884152e-02 2.5641192919280464e-01
      8.8799482733375151e-02 3.0413349092360564e-01
      -2.8605308945615832e-01 -5.2274136526736492e-01
      -3.9210072025146772e-02 -3.6842564565182057e-01
      -1.3198963689298301e-01 1.1570180842083308e-01
      -1.1330824384845799e-01 4.4197685149568799e-01
      -1.8332324061675320e-01 -2.1558695243069531e-01
      4.3607650436548904e-03 3.3784069056666255e-02
      -1.7263204792968145e-01 -1.0774540795396476e-01
      -4.9117425527904102e-02 -5.3039979950638257e-02
      -5.2618116463823720e-03 1.5314707472821812e-01
      -5.9184781911344644e-02 1.2020342200682949e-01
      -1.2537066269837643e-01 3.4302238998435611e-02
      -5.2931885469281688e-02 -6.6031327185643945e-02
      1.5818495944279731e-01 -3.1026174536955692e-02
      5.8392989661254904e-02 3.3378340265425036e-02
      -9.3547489021181623e-02 6.8673041656217612e-02
      -2.9976425754381850e-02 2.0757656402648422e-01
      -4.9452049830358009e-02 1.2421351586108556e-01
      -2.9793227667724714e-01 -1.5054832761789708e-01
      1.3741451515328604e-01 1.6629529575311791e-01
      1.9137107117747409e-01 1.4252541581898279e-01
      -5.6568005232680685e-02 9.3617158921689356e-02
      -9.0332795493225121e-02 -6.7604621500185633e-02
      -7.9156797344093130e-02 2.1600725821203171e-01
      1.9281499770070104e-01 9.6701792018827795e-02
      -2.4713662512470691e-01 -1.5879609769878275e-01
      -1.4669753095348920e-01 -6.2899999611969182e-02
      3.9027790376833953e-02 1.9577622094389686e-02
      -8.0229396895052305e-02 2.8969289188387032e-01
      1.3325033915868306e-01 -1.6664657507692951e-01
      -3.3230149396771075e-01 4.6746967830443222e-02
      -4.4873727086105659e-03 -3.5586932903002416e-01
      9.0111185581153344e-02 -2.1906115395078160e-01
      -1.1346121357929780e-01 3.3207582918877482e-01
      -1.4722104294097014e-02 4.0794598482370431e-01
      -2.8228038835415581e-01 7.6021624861889060e-03
      2.6099227320507135e-01 4.1287946593742721e-02
      -2.5778601396540790e-01 5.8190423320761721e-02
      -2.1393688007553857e-01 1.2881442564159715e-01
      5.9322232621207366e-02 -2.8207233474608029e-01
      7.5555350157488738e-02 -1.0837564820456416e-01
      4.7648288233587016e-01 -1.1168563446990917e-01
      2.6173298996053646e-01 -2.2837227444207086e-02
      2.3653242196707536e-01 -4.7837616116211934e-01
      -1.3947164882502391e-01 6.8026475285351481e-02
      5.4476896015379951e-02 1.6969384062278595e-01
      6.4718672758357618e-02 6.1320464724810975e-01
      2.1746306117341413e-01 -5.2194839497486503e-02</_>
    <_>
      1.0913615823989535e+00 2.1888500677888585e+00
      1.3453810753610298e+00 1.8715635625213470e-01
      -1.9566497950645936e+00 -1.0759746842984343e+00
      -2.0488426785292018e+00 7.1556909490713871e-01
      -3.7854274352446687e-01 -1.0734722547167064e+00
      -1.7456070297055111e+00 3.6463750105344317e-01
      -2.9632539021882076e-01 5.5518745128468272e-01
      4.8181745475326793e-01 -2.2502168792303441e+00
      -2.7667923946947759e-01 5.7538295503424908e-01
      2.1796065867186636e+00 -1.0681126530616063e+00
      -3.1399953757055521e-01 1.8557283103518996e+00
      -1.1676312843368319e+00 -1.8916428727685430e+00
      -2.3946092926939003e-01 2.6468928357704963e-01</_></weights></opencv_ml_ann_mlp>
</opencv_storage>
