<?xml version="1.0"?>
<opencv_storage>
<opencv_ml_ann_mlp>
  <format>3</format>
  <layer_sizes>
    12 50 25 12 2</layer_sizes>
  <activation_function>SIGMOID_SYM</activation_function>
  <f_param1>1.</f_param1>
  <f_param2>1.</f_param2>
  <min_val>-9.4999999999999996e-01</min_val>
  <max_val>9.4999999999999996e-01</max_val>
  <min_val1>-9.7999999999999998e-01</min_val1>
  <max_val1>9.7999999999999998e-01</max_val1>
  <training_params>
    <train_method>BACKPROP</train_method>
    <dw_scale>1.0000000000000000e-03</dw_scale>
    <moment_scale>1.0000000000000000e-03</moment_scale>
    <term_criteria>
      <epsilon>9.9999999392252903e-09</epsilon>
      <iterations>50000</iterations></term_criteria></training_params>
  <input_scale>
    2.0870415708672797e-02 -1.7214389364074349e+00
    2.9316415993869031e-02 -1.4194575924125710e+00
    1.4030149798458007e-02 -1.9554339034319117e+00
    7.9093899011572388e-01 2.3938263325811202e-01 3.6951545067740765e-01
    -1.0145733331430977e-01 8.4671308958987412e-01
    7.1948329871087638e-02 6.1996602857689282e+00 1.3046624789333108e-01
    7.5817340062918346e+00 -3.2966286702199343e-01
    1.7742721985497727e+01 -7.7865131143382316e+00
    1.7417582159055538e+01 -1.1005300823160539e+01
    1.6396224270122140e+01 -8.7657681659536344e+00
    1.7549748463409863e+01 -1.1086866243685073e+01</input_scale>
  <output_scale>
    5.2631578947368418e-01 4.9999999999999994e-01 5.2631578947368418e-01
    4.9999999999999994e-01</output_scale>
  <inv_output_scale>
    1.8999999999999999e+00 -9.4999999999999996e-01
    1.8999999999999999e+00 -9.4999999999999996e-01</inv_output_scale>
  <weights>
    <_>
      3.0718739864014749e-01 -1.4251854797141299e+00
      -7.7649212586162242e-01 4.2451514851127109e-02
      -1.1778268062729129e+00 -2.3295172920416166e-01
      -1.1434719246868072e-01 6.8611544203621089e-01
      -1.1771791564853482e+00 -1.4289752947058726e-01
      6.3540425756601826e-01 -5.5250853560936203e-02
      1.0112685729838746e+00 -1.7227419619600457e+00
      -1.0853044892898231e+00 -9.1427489622338054e-01
      -7.2238409666332748e-01 6.8289419631196191e-01
      6.9001378522759216e-01 8.3940815666200352e-01
      -1.1492382323299788e-01 -2.4015179214764368e-01
      4.2417066126676689e-01 5.5321372596523855e-01
      9.0537701639453971e-01 -6.5390497053695029e-01
      -1.9916172210469082e-02 1.2918823412453153e-02
      -2.2665002610531948e-01 1.1050397857440608e+00
      -4.7534194164031740e-01 -4.6941029719899391e-01
      -9.7948342457593707e-02 2.1625504041309500e+00
      -5.8564889520187825e-02 9.7501518232452095e-02
      -7.3125625742242539e-01 -6.7913017564934008e-01
      2.8728440513097481e-01 3.5867364505382476e-01
      -1.4401040751288063e+00 5.7040037568452828e-01
      1.8753613171427749e-01 4.2824863690225284e-01
      -6.0771838452467974e-02 -1.1796731086123016e+00
      6.5976647937634614e-01 2.5676376008300528e-01
      1.2394718219040611e-01 6.0639683052933757e-01
      3.0394092281061783e-03 1.1914732690470099e-02
      -4.0723910145245745e-01 -4.3962831276923336e-01
      1.7281070359950848e-01 -1.7754180878132058e+00
      8.8164144094842412e-02 1.4138597983864742e+00
      -7.4617852883391167e-01 1.6974833785725094e-01
      -9.5564611866754900e-01 1.0822740588991353e+00
      -9.5932596433788597e-01 -4.8410146543238197e-01
      -9.5798493336921413e-03 -8.5389849765226244e-01
      -5.2149243338998874e-01 6.7622302348114394e-01
      -5.8436507814743621e-01 1.4104359100022099e+00
      3.6136655608420754e-01 2.3934895458407227e-01
      -6.1119692046022001e-01 -4.3012507789869708e-01
      2.9305700768271181e-01 -2.2974078274650975e-01
      -2.4193475306020440e-01 7.6384476997196393e-01
      -1.2120424498050464e-01 -1.3182372409067948e+00
      -6.2339267635153217e-01 -5.3652313203275381e-01
      1.4742953285742861e-02 -1.5413452207824532e-01
      -1.3465507263806853e+00 1.7865492575050193e+00
      1.3419112237948063e+00 -1.5716094072739284e-01
      1.8498382220431206e-01 7.6775245015936300e-01
      -1.0477164988862642e+00 1.1606235444146235e-01
      -8.3892969887061042e-01 -1.2130506258745610e+00
      4.4521365008687386e-01 1.0772671521783681e+00
      -8.2653170619868943e-01 3.3526462152725550e-01
      -1.6840507520243841e+00 -3.8026077855344803e-01
      -2.2658249330148880e-01 -2.0075241151458743e+00
      -1.0523454664127958e+00 1.6806077052283239e-01
      -2.5627414013848443e-01 1.1327469365257756e+00
      -3.0489983282721272e-01 3.0558516791574059e-01
      -1.1259848417200342e-01 3.6807494804181734e-01
      1.1248644936479768e+00 -1.1715311556488797e+00
      1.7306531959802651e-01 -5.9945436961344543e-02
      4.9812613836520087e-01 4.8679953605819248e-01
      -2.3131889613219632e+00 -4.8668823501993197e-01
      -3.6372616337025815e-01 1.8897914308059414e+00
      2.9833168420540634e-01 -3.9647550886753991e-01
      6.9158187040360020e-01 -1.0058989941045546e+00
      2.9456446140161308e-01 -1.7038174511650236e-01
      -5.2597140605197490e-01 6.8729693176703410e-01
      -2.2564933738416607e-01 -1.5219258125056404e-01
      -1.8738087444412026e+00 2.3735320802385371e-01
      4.0983295691668886e-01 3.4535975507989161e-02
      -8.7500494146423205e-02 -7.5570420585543488e-02
      -2.3657405523051156e+00 -8.9430696485609973e-01
      4.0748755183859237e-01 6.7198762688586555e-01
      -1.1885645666956963e+00 -1.0257832948880599e+00
      6.3709640179987348e-01 9.2949115722816777e-01
      4.8829530922535846e-01 -6.4471672696119448e-02
      1.2919711835068756e-01 5.8604503663491647e-01
      -6.3603181662208352e-01 -3.5915704219314687e-01
      -6.8062001414125606e-01 -8.1965065219549649e-01
      -5.0086739765444399e-01 9.5636436788181578e-01
      9.2734296452016654e-02 -2.5949112148366105e-01
      -2.6292878283835464e-01 7.3018141360978187e-02
      1.5168607693784256e-01 4.9302817452995445e-01
      -9.1639986298085574e-01 -3.3577264403891466e-01
      2.8551494802690958e-01 3.8348729217952482e-01
      2.4449806379609126e-01 2.9111583639475691e-01
      5.9793669749662970e-01 3.9401162335591716e-01
      3.5148075406452906e-01 -5.8136367656089838e-01
      -5.0089258323115493e-01 7.5901420375034212e-01
      1.1518043487769523e+00 6.6747029964735360e-01
      -7.4715126788706743e-01 -8.3767293263879583e-01
      2.5590415237099673e-01 2.8365754489869704e-01
      -5.5909370137336023e-01 2.0399959714949283e+00
      -2.1575399357001904e-01 2.3514250897769329e-01
      8.9088013445534214e-02 -2.0305510072289601e+00
      -3.6340782967954877e-01 1.1489599490628126e+00
      2.3228146149071180e-01 -2.2545305902071364e+00
      -1.2147224437915287e+00 2.7545431489318423e-01
      -5.9453362775351501e-02 1.2878193912795042e+00
      -2.1952277214592239e-01 1.1781928666936408e+00
      1.0309131336847834e+00 8.5060480074971112e-01
      -1.6475328952826824e+00 1.4505336693426268e-01
      -8.8962666386398814e-01 7.0971889900977803e-01
      1.9605697447992357e-01 -5.1227871315984830e-01
      4.6008406297771959e-01 -5.4174859307612309e-02
      -1.3832565540501471e+00 -1.7305672915521347e-01
      -3.7964933920562405e-01 1.5027718451861427e-01
      -1.3629934036101868e-01 -3.6135767425555365e-01
      -5.0654867800234216e-01 1.7908734678434082e-01
      3.1902634920211231e-01 -3.4180617781024353e-01
      1.3885093883223458e+00 3.9308743863418755e-01
      4.8452461291378335e-01 9.3243840125409672e-01
      -3.0741234909618131e-01 -2.0274497589322427e-01
      1.1991152063141743e-01 3.9833348173788308e-01
      6.4960284321656658e-01 1.2786479460682192e+00
      -5.8557295039528146e-01 1.2329484042362808e+00
      -3.0281320975600523e-01 -4.6486730558540396e-01
      -1.7309630294764553e-01 1.4489348856211834e+00
      1.1977996762132606e+00 -5.2162927205726135e-02
      -1.0436143898911296e+00 -1.0264882859664418e-01
      -7.1163733550918751e-01 2.4533290387391812e-01
      3.3855805594506594e-01 -1.0473352217562921e+00
      -5.7268437752722723e-01 -9.6912611567740337e-01
      -1.9108783595917797e-01 -5.5572923746275815e-01
      2.3574063801731462e-01 1.0416559623517771e-01
      2.0956283344057619e-01 -1.1902505666574246e+00
      1.9725488787699576e-03 -2.3602126915913685e-01
      6.8928526094891984e-01 4.9002624489137508e-01
      -3.4325445580934821e-01 -1.4197320310520747e+00
      4.0068678805189067e-01 -3.5151035706805561e-01
      2.8285962244370721e-01 1.3490446958621778e+00
      -9.4097830991533338e-01 1.9497223749765621e-01
      5.2347287053531955e-01 5.3046908522521619e-01
      2.0096442192986639e+00 4.8799243749049609e-01
      -9.4824037133274891e-02 -2.9110576640503832e-01
      -9.7895515983029757e-01 3.2315195693494009e-01
      8.7140355474170317e-01 -4.1357737102339270e-01
      3.4505867673091287e-02 7.8367922505953957e-01
      4.0767864796311959e-01 7.6272312640200901e-01
      -8.9908716766077790e-01 6.8752102079740586e-03
      -1.9330854990649631e+00 3.7440354690564065e-01
      -4.5416801337452817e-01 -2.0926794653444361e-01
      8.7976812749806552e-02 7.7830145875497403e-01
      -3.6162980905384440e-01 -4.0921960759854159e-01
      -1.4617977040862979e+00 -2.5529320437481429e-01
      -5.4817098767923844e-01 -1.4968842712366748e+00
      -7.8118864258470933e-01 -1.4213983110188086e+00
      -3.1784813941734991e-01 5.9829917579978698e-01
      -1.5161072423173501e+00 3.8661749570992882e-01
      -1.2175155363918913e+00 1.9150097969343007e+00
      9.5757073727861874e-01 1.2084895535737844e-01
      1.7131115432281027e-01 -3.1465374052385545e-02
      -6.0045292475810905e-02 1.1444339127834497e+00
      -9.5699342624663883e-02 5.9782737716282408e-01
      -7.9453208817253873e-01 5.4822741154505039e-01
      -5.1424745481448109e-01 -9.2252463118391348e-01
      -2.0386230041216139e-03 1.7940840108444939e-01
      1.2656355904372258e+00 2.3268097004932260e+00
      2.8607198693958558e-01 -1.0716888609439246e+00
      -3.9621781941377326e-01 1.1403803165205140e+00
      -4.1504154884007471e-01 -1.2334032999708733e+00
      -9.1096575302949356e-01 -3.5402680517203028e-01
      -1.2694223994330573e+00 1.2280210162054515e+00
      1.0592835435142783e-01 8.4611924608863665e-01
      8.5511289641505028e-01 -8.9886092122871941e-01
      2.4983905090179737e-01 -2.6613129188695045e-01
      1.6212519289139918e-01 3.0932433329264886e-01
      4.4717289017759371e-01 -4.2205660624886637e-01
      1.1466132875467545e-01 -5.6566988298246268e-01
      -5.3474855747483929e-01 2.5692728890213817e-01
      1.2978764530714644e+00 -8.2782096153217599e-01
      -3.1228932037034218e-01 4.1992925737618414e-01
      -1.0335592551932067e+00 -1.6408319274130025e+00
      5.4068031428006935e-01 6.0955561780352319e-01
      -4.0401109305410460e-01 -1.1661151699353871e-01
      -3.9834302833099733e-01 -5.7120971059969927e-01
      1.7477812257312006e-01 -8.8526061075320850e-01
      -8.2565096495112789e-01 -8.7958992053967511e-01
      -9.5842609281031843e-01 1.0119585837354610e+00
      3.9440304909965557e-01 -4.7848607088780998e-01
      6.6799562128670431e-01 3.9394445263476752e-01
      -2.9267567957293961e-01 -3.3697927112705106e-01
      7.7014534784038524e-01 5.8870726846044474e-01
      4.4543093501429754e-01 -4.5748825481894229e-01
      2.2250725005768102e-01 -1.7237114212117948e+00
      -4.7694221054309771e-01 9.4897276584754586e-01
      -9.5106690852609121e-01 2.8121654381867039e-01
      -1.5536419929720613e+00 -4.7364139434810819e-02
      -1.5819540003649371e-01 -8.9119795276323965e-02
      -8.4008841614315998e-03 2.7558057120718382e-01
      -7.8889848888234215e-01 -5.6057124083081300e-01
      -1.2180666617572908e-01 -3.5250475484897353e-01
      4.6568103001684386e-01 -1.2721440716461443e+00
      9.0579527177844621e-01 -2.4187900062969661e-01
      -2.7844617572505209e-01 8.1623925757940841e-01
      -3.0446769774556587e-01 -1.0882998474375312e+00
      1.0914732604405974e+00 -1.3007422849487769e+00
      -7.3350561742378084e-01 -1.1063436675014104e+00
      2.1737311223920405e-01 3.6547996131046834e-01
      4.7251971568783996e-01 9.0198764550364252e-01
      9.3934211413309210e-01 1.4539606700926606e+00
      7.7801556347063350e-01 4.3903935276505640e-01
      9.1577621376998108e-01 5.5518133535235725e-01
      5.8421084711494953e-01 -1.6148716229059683e+00
      -1.9138465251885897e-01 -3.3613970766652773e-01
      -1.3988587095337887e-01 -1.0070403038871159e+00
      1.3587983408100418e-01 9.7370804225830698e-01
      -6.8317704342958896e-01 -2.0200912450108796e-01
      9.5285843565177075e-01 -2.8702705798956113e-01
      4.5422897921334304e-01 -9.5405300562029527e-01
      -2.0985588420625370e-01 6.4150535892530658e-01
      2.5422721672325593e-01 1.0687765883582243e+00
      -9.4403027024789463e-02 -2.3939665415550317e+00
      -3.2548783962285333e-01 1.3004513923185404e-01
      -3.4231308367640495e-01 4.1641545048172146e-01
      1.2657811908417962e-01 3.2597882196202181e-02
      5.4865449246050857e-01 -7.7759446915258601e-01
      -1.1272912794004650e+00 6.5238031724070356e-01
      1.5034483316110221e+00 -1.6660753227420517e-02
      2.8385792819392863e-01 -1.3833597876206722e+00
      1.3292907011585027e+00 4.6960254964231962e-01
      -5.5117049291974285e-01 5.6237936132859379e-02
      5.4871317205966086e-01 -3.7234560394830690e-01
      -6.5293417187141201e-01 2.0525473579506084e-02
      7.6162173444235093e-01 -6.4053927672509969e-01
      6.7728408515259575e-02 -2.2719123841467574e+00
      1.8329390717248282e+00 1.3239822583077465e-01
      1.9860452061251141e+00 -3.7561001394784399e-01
      6.4089319778862608e-01 1.3157890818006270e+00
      -4.7456212864642644e-01 -6.8297363558616275e-01
      -1.6519144544460058e+00 1.0054375961833781e-01
      -2.2833502463381625e-01 -1.2866367260865300e-01
      -1.6631946224280547e-01 -1.2454664989582303e+00
      -1.3842050723609143e-02 1.0537726421856941e+00
      -1.1088093368370244e-01 6.7561903041252791e-01
      2.5527644167275487e-01 2.9909342520315679e-01
      8.4210636618523971e-01 -7.7974752802975533e-01
      1.0079268264647749e-01 -7.6921283913257965e-01
      -7.9169097809174294e-01 -1.8825105901743786e+00
      1.1620460690915904e+00 4.8583857403860886e-01
      -1.0303533143528669e-01 3.6008864260246642e-01
      2.3615466952645750e-01 -2.0880574421272546e-01
      -2.4198521768205197e-01 1.1401975597220695e+00
      2.4552804865590945e+00 1.2103829772118957e+00
      -5.7636139209854897e-01 1.2477052161262341e-01
      -1.1290585732681034e-01 -9.0058344261046008e-01
      1.3165306323257935e+00 -5.7389894048818585e-02
      -1.3185892200092400e-01 -1.1018519366707651e+00
      2.8511023651357414e-01 1.8839401290935223e-01
      1.3760082183631224e+00 -2.1797119730560395e+00
      -7.2302047909546552e-01 1.0976023585894543e+00
      5.0037847255668699e-01 3.4825936501769622e-01
      -2.1731747881375031e-02 5.6402242014614556e-01
      6.7981741393358075e-01 -6.3584276567115211e-02
      5.0824209925561259e-01 -2.6403035313068351e-01
      -1.2690192674439926e-01 5.2750115479432820e-02
      -4.0523002549682408e-01 6.6137598605412440e-01
      -1.2841884572513529e-01 -3.3590989532775645e-02
      2.0152588941545307e-01 1.5360908985338733e+00
      -5.3044813304351324e-01 -1.0464190128417847e+00
      -7.9156066607195663e-01 -1.2539816946348323e+00
      1.6532394536945472e-01 1.4869986814993603e+00
      3.2914469482726261e-01 -2.3306841714401365e+00
      -7.6445066670804585e-01 2.2887065610755972e-01
      -7.3850234653577640e-01 1.2866520169500464e+00
      1.5020577524318799e+00 -1.6162283029903374e-01
      6.5354448520728736e-01 3.5340234035046986e-01
      -2.4668488053744900e-01 7.4258863871757685e-01
      5.1109552099813860e-01 2.6699663993127015e-01
      -1.2359544061807992e-01 -1.2889356430729055e+00
      4.8242631086357368e-01 -3.1249948521770082e-01
      2.3185728956623928e+00 7.0493063689830304e-01
      -1.4123006051356894e+00 -8.8388611490738056e-01
      -1.6738041060704695e-01 -6.7514999255494046e-01
      4.4927707351989382e-01 -7.9481712653305692e-01
      -1.2982001849059763e-01 -4.8620034729448863e-01
      -7.5179579155292731e-01 -9.4714206768759954e-02
      1.2369608679315922e+00 -1.1800434583843029e+00
      1.0736432524032582e+00 3.0498538971069200e-01
      1.2672608367050517e-01 -8.4002993882657950e-01
      -6.9339977313360268e-01 -6.3368078240250447e-01
      -2.7959632224326608e-01 8.7161997836873273e-01
      1.3416369611934180e+00 -1.1754681884919141e-01
      -7.1059790337098161e-01 4.2317938785692476e-02
      1.3082873418618564e+00 1.0072270095212774e+00
      2.8816306085977633e-01 -7.4051919091892981e-01
      1.0266607316929568e+00 -3.3611689683382756e-01
      5.9828886986162744e-01 3.4160806022507684e-01
      -2.7699813915810806e-01 -4.7260093139190623e-01
      7.2040217891579073e-01 6.6554224193449152e-01
      1.1269186157482907e+00 2.6648211762305096e-01
      -1.5028747123381062e-01 -6.2638775561425852e-01
      -2.4131620174936658e-01 -1.1855609008399188e+00
      2.0236527896460199e+00 -4.7402026116598400e-01
      -5.9798498943086831e-01 -8.0689107828842407e-02
      -3.8440659964674767e-01 1.4618377175583008e+00
      6.4352369984100577e-01 4.6321644655215816e-01
      -3.0417496446283365e-01 -5.1693839919706097e-01
      -1.1108972698109920e+00 3.8603966403599876e-01
      2.6178896131195191e+00 -1.1737830116241623e+00
      -6.4532963726879544e-01 7.4184595490095118e-01
      6.0340904927221584e-01 5.6197622531479726e-03
      4.3866011163795948e-01 6.9525716281379590e-01
      2.0871478908408608e-01 6.4830086235212814e-01
      -4.4926535133431300e-01 -2.6697027212090912e-01
      -1.2195914905136058e+00 -1.8669296425358171e+00
      -6.0194430380331154e-01 5.2244005936544813e-01
      1.0860515731838987e+00 -1.3651643945322264e-01
      7.3600493140520085e-01 1.4028232800674612e+00
      -1.7380909044836141e+00 -5.9876660683700567e-01
      5.1470970862991794e-01 6.0283248874867812e-01
      1.1298723446139308e-01 -1.3538444600388773e+00
      -4.4520091176388726e-01 7.8864385782717394e-01
      1.0428810431225438e-01 1.5936997831889650e+00
      -1.0931007421530641e+00 1.4541797440583210e-01
      9.8507526318502037e-01 9.5684219950542618e-02
      -1.7258767291439650e-01 -4.2274057576308505e-01
      6.7754785596598199e-01 1.2518162819126707e-01
      2.1580734196394311e-01 -2.3166709159916479e-01
      4.8916766397140560e-01 -3.9727194847938335e-01
      -1.3976694672051415e+00 3.0295309157220690e-01
      1.4324567876634695e-01 -7.8526399736270669e-01
      1.3663959418712512e+00 -8.4236121275436682e-01
      9.8154611147242410e-01 -1.8592186067451837e+00
      1.6050330084249922e-01 -8.3912459314214571e-01
      8.9344253242286661e-02 -1.4170526331746234e+00
      -1.2943272916923982e+00 -2.4302074994957387e-01
      6.7961298843459439e-01 -4.0868961282965699e-01</_>
    <_>
      4.2772157730528831e-01 -4.9244156011608330e-02
      7.3508879033921071e-01 -9.8589456506680384e-02
      -4.5181516584891146e-01 -1.0515570330357977e-02
      5.5589006917032302e-01 5.8329253453447227e-01
      1.5043355829237884e-01 5.3262033161323019e-01
      -1.0334692058555022e+00 -2.1513057133896418e-01
      -9.1312295924697096e-01 -4.3224487565876807e-01
      4.6914698492460788e-01 -1.5577961909207327e-01
      2.2346372332428671e-02 2.3207962091740544e-01
      -6.7710152765115189e-02 9.9718347563228879e-02
      3.7311538642475314e-02 2.6107532502851916e-01
      -1.6175715175085886e-01 -2.9756529562150197e-01
      -9.9336897644615299e-02 5.7643530933313736e-01
      -3.5487964329142113e-01 6.9761867676238265e-02
      -1.4739069735952142e-02 -1.3841039076374509e-01
      1.8080213705877454e-01 5.7489637590965870e-01
      -1.7446687445641254e+00 1.5685070445249045e-02
      8.1192966768081465e-01 -1.7901018989972017e-01
      -8.1623547496982718e-01 1.9111341943499169e-01
      7.9342920843408528e-03 4.2702911545327094e-01
      3.2767126425593124e-01 1.3352579641335016e-01
      6.9095517177307253e-01 -1.5993539179392256e-02
      1.2525535789784109e-01 1.2569888308657215e-01
      -1.6692343943959365e-01 2.9984328156182416e-01
      4.1130328426083704e-02 1.8046930903824940e-01
      -3.2451586016513861e-01 -4.4673809625840150e-01
      -3.3835211248643179e-02 -5.3494603615318256e-03
      4.5212306366757125e-02 -1.5530173457041316e-01
      -4.3659536114530978e-01 -2.5896577733866490e-03
      2.9899319314840062e-01 2.2133468435296744e-01
      -2.2430624052545928e-01 7.6696994646583261e-01
      -1.7806859051072068e-03 2.2001434829476552e-01
      -7.5868847136424178e-01 -3.9856219770745016e-01
      -2.3545332939430053e-01 1.8712512924712141e-01
      -1.7579735309268735e-01 -4.6902960738297181e-02
      1.2128420755902480e-02 -1.9101557558195201e-01
      2.6181418842566972e-01 -4.0266186620399841e-01
      -2.2716103918950564e-01 -4.9534940583664416e-01
      6.3359974729740653e-01 -1.8261270733201290e-01
      2.4081294539594587e-02 1.0383188854237477e-02
      -8.0335781181507249e-02 5.8566113468530279e-01
      2.3219913484886254e-01 -1.2863079868878852e-01
      -2.5132144698718634e-01 1.6031463778305335e-01
      5.4591832462543899e-01 4.5520709709903004e-02
      1.0274179364719291e+00 -1.7303154782744487e-01
      3.5651643285058821e-01 -4.5710389961018970e-02
      1.2890984479571949e-02 -3.1840498087619767e-01
      5.2385042023108980e-02 3.9026840834854484e-02
      -5.3167092222040954e-02 9.8159983420554348e-02
      -2.3788672708869729e-01 -5.8200820009823358e-02
      -2.4164457319563107e-01 6.7933625422332644e-01
      -4.8936705686376436e-01 2.0927604580280162e-01
      -3.3736970815826128e-01 -4.7029286171587198e-01
      6.9750287781159648e-01 9.1180881466375527e-03
      2.0918829486924898e-01 7.4193159325886016e-01
      3.8697735770693048e-01 -3.5249305872760983e-01
      -8.9316906545885522e-01 -2.9643133686428980e-01
      1.1379929989926638e-01 -1.6120700492655189e-02
      -1.9211145774979582e-01 -2.8140495426681711e-01
      3.2855642459687101e-01 -7.3175682400812292e-02
      -2.2390541933907535e-01 7.4774446390417720e-02
      -3.6915155662892168e-01 -2.9950778849428916e-01
      -1.9709446182983592e-01 3.3779933143518309e-01
      -3.1807851527578335e-01 3.0701022054120242e-01
      -2.3503637567554497e-01 -3.6670891906274855e-01
      -2.5827532945226961e-01 9.2361039090648869e-02
      7.0881214805162951e-01 3.2750504040681805e-01
      -3.9796978428624080e-01 -8.2373267958832330e-01
      -1.8421986475044996e-01 8.9437830796171403e-01
      2.8801509151840471e-01 -3.8936753605930163e-01
      1.9152127812453507e-01 3.6640639744027568e-03
      5.0339398131172086e-01 4.4181504708619569e-02
      -2.4975110415446281e-01 -1.0234262021341053e-01
      1.9283997654469628e-01 -4.8522274792763487e-01
      2.8872002928605445e-01 -3.6654761479662945e-01
      3.0621979863606485e-02 3.9514882024955122e-01
      7.3119671098699796e-02 2.3107109855772348e-01
      -1.7021524933170368e-01 7.9774900614291069e-03
      -8.9141697200947112e-02 9.2296527385588445e-01
      -9.1163532315597581e-02 -1.7180274571162990e-01
      9.3499812205607186e-02 2.3517374992109585e-01
      -4.4251597270355031e-01 1.0903946685684464e-01
      -8.7161092304029908e-01 2.1797257812261006e-01
      2.4628999981416307e-03 -1.0403711446825900e-01
      -3.5303155748430509e-01 -1.5066381310680155e-01
      -6.5897566003275529e-03 8.9165848437770586e-03
      -1.4063368090122474e-01 -2.5061980360824976e-01
      5.0661208480205810e-01 -4.9905050160305814e-01
      -4.3867406183622677e-02 -2.1387246413797917e-01
      7.4042915412809635e-02 -5.2111600009995518e-01
      8.6150420274026557e-02 -3.6092329015202834e-01
      -1.0392307132744283e-01 -1.6120119234502489e-01
      -3.2484539340129397e-02 4.3595909439918562e-01
      4.5342499840869527e-01 6.3630753209858071e-01
      -1.0655406737973901e-01 -1.0643778396840668e-01
      -4.7398765328730375e-01 -5.5633171964560919e-02
      -3.4989750377939460e-01 -7.8026038703580147e-01
      1.2426487839464012e-02 -3.1795470219906051e-02
      -1.6517518379354731e-01 -9.2530389705575325e-02
      1.2262710913166357e-01 -7.9577576335965280e-02
      -4.0388749585902967e-01 -9.4601269460362725e-01
      -2.4420435101924487e-01 2.7616525343768200e-01
      -2.4380565087078668e-01 -3.2558391592123717e-02
      3.6004007431030982e-01 -6.5652974752397364e-01
      3.2146918892107512e-01 2.0267093177731968e-01
      -1.8904620549854076e-01 -2.9576018249959213e-01
      9.9281681072109740e-01 1.3349737145467484e+00
      1.0516119758178208e+00 1.4369612787929198e-01
      7.1765075835904801e-02 -6.0024859607128306e-02
      -5.3262922197305418e-01 4.0101137928502274e-03
      1.4437855248557727e-01 1.9366907865765953e-01
      -7.7852660366893922e-02 1.7951030298588516e-01
      -3.0010668333078444e-01 6.2424397486395000e-01
      -6.4693075781134091e-01 -1.3183611977588586e-01
      -1.0260887260178614e-01 -5.1673178184715896e-01
      1.3119270380834366e-01 -3.1945220283093712e-01
      3.7293815407577774e-01 -2.1972612077430079e-01
      5.2225907779793712e-01 -5.2014725790341465e-01
      -6.5290434432091149e-01 6.5625310549523319e-01
      -2.3075586310035429e-01 -3.2467029508443895e-01
      -5.1807980109175278e-01 1.8388840064574299e-01
      7.6626681250665851e-02 -1.4087868144333010e-01
      2.6245477274813848e-02 1.1597618427605352e-01
      5.2259610234045206e-01 -3.4181583797216480e-01
      -4.2705631657144039e-01 2.8567189944399396e-01
      -8.1598711207538754e-02 -1.0097416673405695e+00
      -6.7777616645076955e-01 -4.5627137331692358e-01
      3.6532787246384135e-01 -3.4110810518852225e-01
      -1.3427388855913120e+00 -3.2305152986567803e-01
      5.1059230433768366e-02 -3.7849687046229964e-02
      -4.7719602437936631e-01 -2.2369645700647298e-01
      1.3813367360959350e+00 1.1597221490798313e+00
      7.2233663206097004e-02 4.3517965095292666e-01
      -6.5672577491723907e-02 1.7590441376537164e-01
      -4.9328937880095389e-02 2.0576329240528074e-01
      -9.1639986888689809e-02 1.0551488181943169e-03
      6.5268988886480528e-01 8.2526892661821588e-02
      -7.6220359284579897e-01 5.9613637216252978e-02
      -9.9651693159703802e-01 4.7858290699620315e-01
      -5.7986265721468644e-02 -1.0468563520254080e-01
      1.2191291451903202e-01 -1.0033315088905237e+00
      -1.2000974446063983e+00 2.3988576148845647e-01
      4.8947058639513463e-01 2.2088850320316547e-01
      -2.9166588736023197e-01 1.0217788067529723e+00
      -4.5281038357246317e-01 4.9404884870776211e-01
      -6.3910886305861947e-02 -1.6399876633845234e-02
      3.4531039107818928e-01 -4.4145709770267233e-01
      8.6307402869228819e-02 1.2080666256127923e-01
      -6.0003786538899664e-02 -9.0201917052758901e-02
      2.8791417692147103e-01 5.4189504149765977e-01
      -1.5083627590200646e-01 -1.6801880598664273e-01
      -1.5274514060644570e-01 -6.4474393985790482e-02
      -2.7022559493404108e-01 4.0437312095544929e-02
      -4.8179541240057122e-01 4.6301610915650449e-01
      7.4629738144497589e-03 6.7077807096365760e-01
      4.3348343050172300e-01 2.4356909781303029e-01
      1.4381125372389800e+00 -2.7291087649912038e-01
      1.0295802942593588e+00 2.9005218619981205e-01
      -8.9060329808010902e-02 -4.2312249510367206e-01
      -5.3171893544075137e-02 -2.3033924876774428e-02
      -1.0749850390608008e-01 -9.6323504880158395e-02
      1.0096768048889651e-01 7.3512854401799124e-02
      8.7970496872119192e-02 -5.8224276571618376e-02
      -1.1953638110806029e+00 3.7775474804537174e-01
      5.7346050523209735e-01 -1.4633317466397119e-01
      -4.2189047385997679e-02 7.3663319191554374e-02
      -5.9072140517833516e-01 8.7919298170683446e-02
      4.3831165577222070e-01 1.0920438083208790e-01
      -5.4679265823471335e-01 -7.8178571759810422e-01
      -3.1185269811082306e-01 -6.6380619523685924e-01
      5.1214200014073208e-01 -1.1916124341261297e-02
      -6.5608701789919899e-01 -7.1406049974548824e-01
      -3.2837231236404008e-01 -2.4604740980267906e-01
      1.2051643335877470e-01 -5.1079500503774644e-01
      -7.4262991809261270e-01 -1.6390596414065567e-01
      2.1568886996919540e-01 -3.4845676384971769e-01
      2.5351121317958974e-01 -1.1475548757390777e-01
      4.8508057090093298e-01 1.4977401223583064e-01
      -1.3318998920804334e-01 -3.5720758935227880e-02
      -1.2770212262370997e-01 1.8427109549029694e-01
      1.4793458112984101e-01 6.9304127159225071e-02
      6.8900154671676483e-01 6.8020318300545862e-02
      4.4006418250124907e-01 2.5930552358143810e-01
      3.0173988530059228e-02 2.2047740273093377e-01
      3.5832796744056222e-01 1.1818783857796032e-01
      1.1401434601152718e-01 -3.2658753403402829e-01
      3.9361213825101371e-01 -6.4474672462779270e-01
      1.1018953246162508e-01 -2.9385155556608983e-01
      4.2573364610959546e-01 -3.5007253603702199e-01
      -1.8276424694714224e-01 3.3042200986076031e-01
      -3.7371879362204576e-02 -8.8741564152373054e-01
      2.0502221240233201e-01 4.7127006759507657e-02
      4.2264496669888246e-01 -4.6628051004966159e-01
      -1.0036128405043174e+00 1.9482985872739328e-01
      2.0578533686375422e-01 3.6611593112388685e-01
      -3.1610901273571620e-02 -1.9240366268919740e-01
      -2.6329119294071401e-01 -7.9607912833133432e-01
      -4.3490155864026915e-02 7.1870129242325984e-02
      -1.2424204635795988e-01 3.2443432641830494e-01
      -2.5739125892574843e-01 7.9639097451771876e-02
      1.9445355402073125e-01 3.9665758231337234e-01
      1.2119556440045849e-01 1.1013279137905420e-01
      6.8989725941291200e-02 2.7357127488777122e-01
      -1.6128436092605003e-02 -4.5628524031700118e-01
      1.7844088804624339e-01 9.9884625045662212e-01
      -5.0100979689477132e-01 -2.4168733816763360e-02
      -1.6634897081895546e+00 -2.9292682221352045e-01
      -1.0145667830918987e+00 -3.7094555346260577e-01
      -2.1668410020265091e-01 3.2616841874755338e-02
      -8.8276724347787838e-01 -7.7038181972267430e-02
      5.4940636702508892e-02 8.5080207901366889e-02
      1.0864599961906471e-01 6.1072239012193286e-01
      1.2982030040982045e-01 -2.8028673373470082e-02
      4.7035596369614308e-01 -3.7439596947248843e-01
      -6.3710648189132496e-02 -9.4534276532643202e-01
      -5.9113822953588843e-02 7.5383635899503831e-01
      9.6331398319246453e-01 -2.0667782003604621e-01
      6.7263942172383365e-02 3.0915723041171828e-01
      -3.7535761997586670e-01 -5.8114740587509395e-01
      -5.5737202631756722e-01 -9.9259828544189743e-01
      -1.5458463157040253e-01 -1.3759740662550468e-01
      -1.0169570966659151e-01 1.6841973959362178e-01
      1.3507993722684949e-01 7.6190868822103894e-02
      -8.8209875677473487e-02 -1.1736914345342590e-01
      6.5534351174045480e-01 -3.5579989706156495e-01
      2.7011002816133439e-01 -5.4974203027224222e-02
      5.5947051747564057e-02 -2.4004000791673741e-02
      -1.0090372014020832e-01 1.3788644180114877e-02
      4.5003880087159567e-02 -5.4846750314595838e-01
      -2.5310786819066920e-02 4.9064537870817637e-01
      1.3144629100161626e-01 9.9519196488582484e-01
      9.8832133845377901e-01 -1.4940382764453400e-01
      -8.6743186957027596e-01 -1.4755255945899196e-01
      -2.0183700488114936e-01 -4.3761388545491753e-01
      -5.5971178091921070e-01 -6.7330435112978926e-02
      -1.8175942082624483e-01 -2.0496707265123734e-01
      1.5147701218328466e-01 -2.9356406804711570e-02
      4.6174683270472078e-01 -1.6564340528581872e-01
      -4.2121571248073369e-01 1.8242905817928987e-01
      -3.0469442889994719e-01 5.3847884300758775e-01
      4.7418458034777310e-02 -9.7153626970216386e-02
      5.3513769026536595e-01 -3.5368076872835164e-01
      -1.0903202474619436e-01 4.5885343877465276e-02
      2.4258553361255913e-02 9.0982731882183296e-02
      1.8150070764249307e-02 -1.8308512642822337e+00
      -3.9386156712573944e-01 4.2461224051361485e-01
      -3.6665599388632480e-01 1.9185885100089056e-01
      1.6874610748186225e-01 2.6837142439164108e-01
      9.0591913059730612e-04 2.9217397527138509e-02
      1.6964955659197792e-01 2.5027399108990267e-01
      -3.1467631142062230e-01 4.8160988132918685e-02
      -1.7652752629585020e-01 -7.3000569756757949e-02
      7.1673727761636441e-02 -1.1425710250864733e-01
      3.8450609015882237e-01 -5.7865701105044527e-02
      -1.7398653094443668e-02 7.8631955067950887e-01
      -8.5214351682564513e-02 3.3500243858504319e-01
      -1.5992317883673886e+00 -2.9557411017918578e-01
      2.2339836583206765e-01 -1.2291892508265673e-01
      -9.4759881101939600e-02 1.0302850183781222e-01
      1.2395085614638740e-01 6.0448962800829321e-02
      -1.3319193512309227e-01 -1.2058746646839054e-01
      -5.3290874728785138e-02 -8.3534346919660038e-02
      3.2838681665732124e-02 -1.0245960206270106e-01
      -2.0291472203865363e-01 2.0473679432385202e-02
      3.1975460216946472e-02 -3.9833338788674616e-01
      1.1635869694132439e-01 1.1213862620335917e+00
      -6.4855205673339267e-01 -4.5292631602622424e-01
      -1.1339613481019910e-01 -7.2886416737764317e-02
      2.7488308139702189e-01 -7.7071611231831483e-01
      -3.1687880152693843e-01 1.0720997834261514e+00
      6.9929793960027686e-01 1.1894764373714534e-01
      -5.8569458987286056e-02 1.0545552872166396e-01
      5.9039359323597509e-02 2.0424934655597440e-01
      6.2671398273108948e-03 -2.3531591282109812e-01
      -7.1876482634813180e-02 -7.0078488504900796e-02
      4.5964367860733735e-01 8.9088674798394529e-01
      5.3567816383492250e-01 -4.3599723186177275e-02
      -9.1221847260743102e-03 3.3827530703203745e-01
      -4.1531248979277224e-01 -5.7757155780521308e-01
      -6.4264856281575400e-01 -2.0655609692404722e-02
      1.3729891095375801e-01 -7.0618333666101107e-01
      9.4927145991332273e-01 2.9660035668206401e-02
      8.0737252609767574e-01 1.0984505289959334e-01
      2.5471334411906144e-01 -1.5491979137010128e-01
      5.7087200905528523e-01 -4.0384852206793873e-02
      9.6830940023055791e-03 -4.9767558623041178e-02
      -1.9597413003628988e-01 1.1889589458251834e-01
      -3.5022527149538080e-01 1.4330728121502706e-01
      3.7776256019638038e-01 -3.2319576299258324e-01
      -1.3884212894996456e-01 -5.7795197308782971e-02
      1.8053702058088672e-01 -2.8685881631047061e-01
      -7.6698163171479194e-01 -1.0977791462576512e-01
      -1.1185235638018221e-01 -3.8474454778602278e-02
      4.4014052575954164e-02 1.0536662366705201e+00
      -2.4341874647901063e-01 -2.5177348987580603e-02
      4.0712414264662017e-01 -1.6249498718582614e-01
      -3.2989509269364115e-02 7.4698874541683415e-03
      6.7271201527485613e-02 1.4339124565934554e-02
      -1.0151414155953337e-01 3.4812367607268813e-01
      3.9742415145774657e-01 3.4570192047675979e-01
      -5.2849068000122468e-01 -6.3976877694381884e-01
      7.6103571072222875e-01 -4.1148099129965400e-02
      -6.0787353672386957e-01 1.4067940136612936e-01
      4.8926728403132524e-01 -7.1571252544265007e-01
      -1.1053169116127852e-01 1.1109234020465804e-01
      -1.3673556763449932e-01 2.2053804813226460e-01
      3.3715490362600742e-02 4.1162479745577030e-01
      -2.4765602074545526e-01 1.0869966438195748e+00
      1.4100422840383600e-01 -2.3690413386148024e-02
      -4.5169434613217752e-01 8.0326943160757697e-02
      1.1012143364339716e-01 1.4339177503893669e-01
      2.9909084527756374e-01 1.0016559307934474e+00
      1.9656632039602226e-01 -4.4063066392503562e-02
      -7.4454859421729261e-02 8.6229760485635361e-03
      -6.3748698510577538e-03 2.5213878257053689e-02
      -9.3282635753957455e-02 -5.0827071518957123e-01
      8.7242155419423217e-01 2.1341355246800897e-01
      -8.4134791570456546e-01 -7.2349090629803503e-01
      1.9338084698457614e-01 -1.1191203707054251e-01
      4.8782207700642677e-01 4.8202988670112951e-01
      -1.5401148296402647e-01 -1.1181989282545843e-01
      4.2208584139095318e-01 -4.2234232659716209e-01
      -1.5419099878133510e-01 -6.6142288714305136e-02
      6.1119329301520385e-02 5.3479555776979534e-02
      2.7344970902519855e-01 -3.4286887373719954e-01
      1.7527260952642015e-01 5.2318252021928824e-01
      8.5483809805095429e-03 2.0685845351864113e-01
      -4.1178187214088613e-01 -4.1389634005941076e-02
      -1.1591512548393865e-01 1.6636663286305436e-01
      -3.2284477881900926e-02 -4.7921547751185667e-01
      1.3318282332300327e-01 -2.7316850015732669e-01
      1.5145028478694106e-01 6.6330138588904397e-01
      -6.5868317402088250e-01 -7.5644573929593006e-02
      1.9399792239912859e-02 -4.7263168638614413e-02
      -2.0429311266379335e-01 -7.7685863961331494e-02
      1.0029644830690829e-01 2.2160456677114249e-01
      -2.7331420404260726e-01 -9.9830570102798055e-02
      1.6408849918501431e-01 1.0918297940901125e-01
      9.6772169651068285e-01 -4.8436572586998194e-01
      2.0382227631395473e-02 -8.4168831372104819e-02
      -1.1534130208270522e-01 3.0532232656394868e-02
      -1.0325642135989579e-01 4.9159946821597890e-02
      4.8449566875142691e-01 -2.5356980437938259e-01
      3.3637457629236106e-01 7.0761057494625934e-01
      -3.1496464325685669e-01 -9.6753917373431642e-02
      6.5734157241105859e-02 1.1006770409392921e-01
      -1.5005324183535038e-01 -2.9944370662030995e-01
      -7.4178282545830337e-02 -6.4424800101027122e-02
      1.2702038593671452e-01 -4.4248654463168419e-01
      -3.6467297755235040e-01 1.0708372335838619e-01
      5.1976313968043850e-02 -5.4538993010759783e-02
      1.8666589264100597e-01 -8.7074566397888797e-02
      3.5257105126894506e-01 4.8545176422867493e-02
      1.6044251925943383e-02 -7.1226236476370597e-01
      -1.4836289382544028e-02 7.6092904935180949e-01
      1.2848425983310116e-01 2.2815412226887469e-01
      -9.2482683306476698e-01 -2.3509677379483335e-01
      4.2979986046794466e-01 1.0785534820823117e-01
      7.4548246943109270e-02 2.9103538858280070e-01
      5.6718719709720788e-01 1.1771778362351976e-01
      3.5982251180862714e-02 -2.6962956262029564e-01
      4.6018209734488902e-01 -1.3836501797376144e-01
      -5.6831513787146702e-02 -1.0712167887961282e-01
      9.6498096040467329e-01 3.6398292823089184e-01
      -1.3160092775569837e-01 2.8296228101007609e-01
      7.1586616836934860e-02 -8.3067140096372549e-01
      -1.2733208211027958e+00 -5.2784089099054976e-01
      -5.0450623841218656e-01 -4.1885959233765890e-01
      1.1319686229343369e-01 -2.2233176497682007e-02
      -5.9040250796285176e-01 1.9317240559932383e-01
      2.6421917859712746e-01 -1.3965491281572917e-01
      -4.5682759551620988e-02 6.5913695990188170e-01
      2.2566133890189347e-01 1.2829824981879254e-01
      -2.3186203522978727e-01 5.3955130769945248e-01
      6.2347713706253605e-01 1.3151880463399637e-01
      -1.0909233676031587e+00 2.0771925897225825e-02
      -1.0690904498284775e+00 -2.3774046946027538e-02
      1.1747376043257001e+00 -1.4933517485635986e-01
      -2.2089269197055203e-01 1.3617516809430943e+00
      8.3103448408101757e-02 5.9851466007392784e-01
      1.0946669172819761e+00 1.2817679732649656e+00
      4.2902372040622533e-01 7.2698089016482476e-02
      1.1614676257309569e+00 1.4879685917229857e+00
      -2.0488901070466753e-01 -1.0644541505679745e+00
      2.8985422833525171e-01 5.1595089271433289e-02
      -3.1605498534157977e-02 -3.1151832607812485e-01
      -1.4838968981756465e-01 -2.6436696868256676e-01
      4.9037010217955274e-01 2.1406422778422787e-01
      2.6220456959505167e-01 6.3176000979247060e-01
      -9.8773723270776395e-02 5.8589264212428181e-02
      -2.1007496735814205e-03 -2.0338659050336513e-01
      4.7482385579545788e-01 5.6343949199526490e-02
      -5.0922406748345905e-01 -1.9022706573561760e-01
      -4.9973407227647822e-02 4.0469428993902218e-01
      7.2319745494158039e-01 -9.5116006760254201e-01
      6.7220981413948541e-02 -6.3451516995521540e-02
      1.3308987760502480e-01 -7.7894864522556437e-02
      4.3093431506186580e-02 -3.5491862132025886e-03
      -8.7514321445988363e-02 2.9431093596462760e-01
      2.6957301580053983e-02 1.0588787833191850e-01
      1.3774401610284051e-01 -1.3398819355236838e-01
      8.7895317187859104e-02 7.1369248530681051e-02
      -6.3761589239505245e-01 -3.4607407233692170e-02
      -2.1049009912992089e-01 9.8200799207572964e-01
      -6.2327388423064978e-03 -4.4346058411085448e-01
      2.7582961150244151e-01 2.8518931514647033e-01
      3.0816860124908940e-01 7.0417685640116912e-01
      5.0083643140524536e-01 -7.2043434994490951e-01
      1.0933748644631761e-02 1.6881391466636203e-01
      -5.0151584450383446e-01 -5.0053078941466886e-03
      1.0042121441083660e-01 1.1425262137961789e-01
      -2.4486255334721901e-01 -4.4969244822848470e-01
      3.6431747657198199e-01 4.4958147500532952e-01
      1.2729283015967152e+00 -1.1073274048789219e+00
      -2.3874370347787600e-02 -2.3248557955083299e-01
      -1.0612776281460537e-01 -3.0507701894843353e-01
      -8.8672261527323504e-01 8.6701285207402515e-02
      3.3116955561134287e-01 -3.3814992247748815e-01
      -1.0651152550745879e-01 4.4854916202988238e-01
      -1.0898447155351951e+00 1.6565949497036995e-02
      3.5663621243507482e-01 1.5132019087697252e-01
      -6.4774868766638083e-01 2.9748288436555892e-01
      1.3292096777746815e-02 -4.2030646363341237e-02
      -1.6803167482294495e-01 2.6799237098994358e-02
      7.0620684195505412e-01 2.6519309482014530e-02
      -7.3840080653004436e-01 -1.3167179752318618e+00
      1.8156037873505537e-01 1.5499876676986246e-01
      -6.9876976633154697e-01 3.4341100915877032e-01
      3.1748789775927272e-01 -4.7405377181569852e-01
      -7.4775459527527774e-02 1.1697384880569633e-01
      -1.8344819425665741e-02 -1.9336366181418865e-01
      7.2273180298460704e-01 4.1541942591725867e-01
      -1.0686693161639604e-01 -9.7478202989829599e-01
      -1.3181965303132862e-01 -3.7848592194741959e-01
      9.2035562940744997e-01 -2.5950187613993497e-01
      -1.6438979691572816e-01 -4.9665912937191231e-01
      6.0268162985612925e-02 -3.6907613785825966e-01
      4.7325324344308506e-01 5.4708640289099331e-01
      -1.7311030415913973e+00 6.7701269622361104e-01
      3.3066856707190423e-01 4.5944365775178825e-01
      5.5433335598646460e-01 -5.7476661121229555e-01
      -6.1728933736693289e-02 -5.9613102019302744e-01
      7.7780490452062506e-02 -1.7540002866399410e-01
      3.7301056226170154e-01 -1.7017058313870623e+00
      5.9807541434777989e-01 -2.3061154740634390e-01
      2.7691296311509405e-03 -7.9684472518357904e-02
      -4.7687202698625492e-01 -3.0369005212694949e-01
      -2.2260626719800641e-01 -6.3141223834821902e-02
      2.3422333640190146e-01 -5.3521575223352802e-01
      -9.8521457715037952e-02 1.1600534370233619e+00
      -3.5541563519960864e-02 6.1132101373976500e-01
      -7.2835315707492299e-02 2.5910608534351243e-03
      6.4919501314646147e-02 1.1985021844938386e-01
      -1.0903269159892537e-01 -3.9237178541837131e-01
      4.6038985335969368e-01 1.3770915132835875e+00
      -9.8028340168452177e-01 -5.5011890783901762e-01
      -9.8644324535751704e-01 2.2851689874301742e-01
      -4.5239521132041172e-01 1.2646748955022515e+00
      -3.9775517087646040e-02 4.0567449153109686e-01
      -1.6511216908582838e-01 -2.3864574461328114e-01
      -5.4822703023508279e-02 4.5161981794549988e-01
      -3.1450349367317026e-01 1.4038300556577796e-01
      -2.5904926479775103e-01 -3.3293626753051692e-01
      -6.3960761684999964e-02 2.0563103038187672e-01
      3.2814324579342879e-01 -2.3826537182857943e-01
      -3.3245217527100518e-01 5.6083597633757998e-01
      -5.3250598169147893e-02 -3.1244137255199861e-01
      -3.5737999212594401e-01 -6.8582881948321642e-02
      4.6278145555820743e-01 3.1836999734839083e-01
      -1.4742586572565295e+00 -1.5508216046500252e-02
      5.4230212139260003e-01 -8.2586563967819521e-02
      -3.0208723948752868e-02 3.9616793437329290e-01
      -1.0294770926087676e-01 -2.9968287339510746e-01
      -4.2454416356976216e-01 2.2433739034781033e-01
      -5.9590174840001686e-01 6.5898001899390157e-02
      1.9105751876964525e-01 -5.0432360257425357e-01
      -6.1935626388367949e-02 1.3800196222846359e-01
      -3.2043599180964438e-01 -1.6125234520979048e-01
      6.1884318820158446e-01 -1.6569380484668833e-01
      -8.1829533939845919e-02 -6.6357070889985492e-01
      8.2814725443031589e-02 -2.7373015227582648e-01
      5.9723515123015058e-03 7.1385344408722484e-01
      -9.9397864660102464e-01 -3.2702645758831653e-02
      1.2780225054249858e-01 3.5631003768989705e-01
      -6.6872429377455700e-01 -1.9601554559193621e-01
      -4.1385320491569226e-02 -1.2137490450731503e-01
      -6.2079248455514724e-01 -4.3850454066430046e-02
      4.0320690366382017e-01 1.4108910325881041e-01
      2.4677113043294599e-01 -8.5124888898795326e-02
      -2.7647569151595863e-01 4.7796516912057496e-01
      -1.1881479155793909e-01 -1.6023140378208737e-02
      -1.1471195605355965e-01 -5.0601713327276165e-01
      2.3208377286449750e-01 4.1973105960065721e-01
      9.6845917832353090e-01 -2.0288379599183098e-01
      -1.3632546733903765e+00 -2.5235232010406239e-01
      -3.7192981125960818e-02 -6.6426874815606371e-02
      -1.9446942003577924e-01 2.4141708267576717e-01
      5.6892109520095459e-03 -1.3605007408299188e-01
      -3.4548842949104380e-01 1.5603213803061880e-01
      2.5521163776570932e-01 3.0201499814420302e-01
      -8.1953241951815206e-02 7.6223148062481172e-01
      1.6199300224653190e-01 5.0088332527682888e-01
      1.3344608753033904e-01 1.2991571047631670e-01
      1.7780864591856527e-01 -1.1800956362238411e+00
      -7.9064738646110952e-02 -1.9119822547377940e-01
      6.0966692310892190e-01 -9.8133196381154308e-01
      6.6331002908384984e-01 -3.4289686600590180e-01
      -3.1054204487025022e-01 -7.0882356401131685e-01
      -4.7055056443797608e-02 -8.0970122382684195e-02
      -8.0518225094022200e-01 -3.3857225073156366e-01
      -8.6657628120392169e-02 -2.5774989825011291e-01
      -6.5569385927396903e-02 -4.1580704387347228e-01
      6.7082132579600018e-01 2.2740103114393857e-02
      -9.1462104308474079e-01 -4.3449801721223252e-01
      2.9052930346551070e-01 -3.1234053439840775e-01
      -6.5147597308763322e-02 -1.5738942742279932e-01
      -2.6379270181213711e-02 5.1434379101399219e-01
      -4.1571864108790751e-01 -9.4049931904444750e-01
      -9.4618648679171746e-01 -6.5516695807843806e-02
      -3.2427784738256593e-01 -6.5783032764890559e-01
      -5.4008694678802993e-01 -9.5593009140896607e-02
      -1.7269306024963496e-01 8.5386252883960054e-02
      -2.6606846002789225e-01 -2.6965002065394372e-01
      5.1168200602359637e-01 -5.1137522848298156e-01
      -2.9787181088515124e-01 -2.6662577155060380e-01
      1.2943567885560786e-01 1.4368610013667560e+00
      2.1229496349577626e-01 -9.8063517399583411e-02
      8.9225370781947000e-01 2.8691935735979857e-01
      1.2044022999786373e-01 2.7073858514212307e-01
      -6.3295763513923214e-02 -1.1652889619843929e+00
      -3.2095387982275347e-01 -6.7491637432418472e-01
      -8.9814657279869392e-01 2.4620718710002032e-01
      -2.3293900325604691e-01 3.9143652484710661e-01
      -8.8703329685115906e-02 -2.9640082096708625e-01
      -2.2775199930713275e-01 7.4613168685520162e-02
      1.2293750643874737e-01 2.3207048942177188e-03
      4.7421440283069140e-02 -2.5510128354234290e-01
      5.8214069090604093e-01 -5.9007011175853186e-01
      -3.7012746013162867e-01 -1.0237518707175819e+00
      -9.7259623630954386e-03 1.8492813066387839e-01
      -2.5537007393157696e-01 -8.2324537828725466e-02
      8.0075312748759142e-01 -1.7063175119174476e-01
      -7.9021746687363703e-01 9.6847736044343824e-01
      -4.2208348545135110e-02 -6.0453814829253205e-01
      -6.6869664363099612e-01 -9.6820603563213270e-01
      8.9043559713885578e-01 -3.5336773807252103e-01
      3.1642028252511423e-01 1.5099923449074926e-01
      -3.9349595280494865e-02 -2.4816396895554932e-01
      -8.4976013193031288e-02 1.2883675191100263e-01
      1.2831330652529316e-01 -8.0911692144111791e-01
      -1.0063300074246632e-01 4.6798611256510114e-01
      -2.9919456988065318e-01 -2.6053027275007862e-01
      1.6174465409004213e-01 7.5346018546054855e-02
      -6.9732297791928266e-01 -5.8150893399779313e-01
      -2.4348865776268486e-01 1.8665610870354016e-01
      3.5778067949953574e-01 -4.0357942514060124e-01
      5.3604480218096018e-01 -1.1992663131009043e-01
      4.7095096868433028e-01 -5.0762583185898269e-02
      5.1871238795497049e-03 -1.2063288720394225e-01
      4.4178687492637519e-01 1.4283390435271959e-01
      1.6792072274254666e-01 -5.2515105815841213e-02
      9.3215619316263446e-02 3.1960120228228167e-01
      -3.5204226453612675e-01 2.6457969627340178e-01
      4.9156528176533171e-01 -6.7039902278053654e-01
      -6.7860285277082863e-02 -4.3878428613625248e-01
      1.1101443482204307e-01 -6.0207995923707069e-01
      -5.2731496000793499e-01 2.8534736174562264e-01
      -2.4821659521244757e-01 -5.8393392461587079e-01
      -5.4967256083601501e-01 2.8374842232207986e-01
      3.4295133506302942e-02 8.4174850154835013e-01
      -5.2726589441388561e-01 1.2222976800276338e-01
      3.5671397291812162e-01 -1.5201406134956369e-01
      -1.9693903624562445e-01 -1.0142422724954840e-01
      2.1290611403082738e-01 -2.3380379714368013e-01
      -3.0823267740386134e-01 -6.4609761743560784e-02
      -3.9302717672370718e-01 9.6043277381687098e-01
      -3.9173343777405500e-01 9.8874390118844344e-02
      -1.6314763323180326e-01 -2.7459487168467567e-01
      7.8264696086279700e-02 8.7275553471652290e-01
      -1.0941546989261765e-01 -1.2773183784239989e-01
      6.2529509999198329e-01 3.9077321585747349e-01
      1.4214343520476436e-01 -1.1428875366813203e+00
      -2.9505051015562994e-01 -1.1620762607193687e-01
      -1.3648682882110733e-01 -4.1894696653706387e-01
      1.4673686594923419e+00 1.5386502835840069e-01
      1.1303622759678925e-02 -2.8347994196178000e-01
      4.3929040024970625e-02 4.3939045632445078e-01
      -5.7354992060377408e-01 -1.0641828642654429e-01
      3.6662357800178708e-01 3.1095018759308335e-01
      -1.1309604881013939e-01 -9.9686295135195849e-02
      -1.1234728360303614e-01 -9.7636213655931586e-02
      -1.3167744642910717e-01 1.9163463342110212e-01
      4.0081455708036118e-02 -1.3644988354870713e-01
      1.1244314738818591e-01 9.7757835431965634e-01
      -2.9239504434461472e-01 1.4889186657251136e-01
      5.3922922898393937e-03 7.4442243246670122e-03
      -9.8836762943166137e-02 1.9075589225259834e-01
      2.7160082493195230e-02 4.7331788649199397e-03
      1.7958779506905070e-01 -2.5347442252332036e-01
      2.9399300615122437e-01 -1.7277497466398273e-01
      1.3623860369870339e-01 -8.6232117536587682e-01
      5.3527012607813151e-01 1.2565649825218769e-01
      -4.9933677850892783e-01 1.9910255341571436e-02
      -1.1002219193349450e+00 4.4626824512811331e-01
      3.5610726612812343e-01 -1.5902126082184866e+00
      2.4467807757178858e-01 -1.5208268957343737e-01
      -1.0540236866275764e-01 -3.2874091013575757e-01
      -1.6531239036944700e-01 1.2225555036965073e-01
      -2.3199058182266202e-01 -5.8026563309341972e-02
      -1.4131329248733945e-01 2.8155736317984494e-02
      1.2421250704918072e-02 1.0245506749870348e-01
      3.0090692943934566e-01 4.3272368543079781e-01
      1.4123493370160334e-01 3.6550461174915799e-01
      1.5997765990344373e-01 2.4540100109759463e-01
      -9.4180882197033328e-02 4.6140830296189023e-01
      1.3597511083215572e-01 3.9455646693018448e-01
      4.8208245858025861e-01 4.9899756649883838e-02
      1.6189040043103814e-01 -9.7711315522149941e-02
      -2.4318569561298502e-02 -7.4813007486279087e-02
      -1.0639080323387995e+00 -6.8106491673827430e-01
      6.0221394307717235e-01 -2.4139708251924880e-02
      -1.8195247717599916e-01 1.2600002908946531e-01
      5.7494387438656876e-02 -9.0406600158462358e-02
      1.2150087789127163e-01 1.1240687703319759e-01
      8.6138496352850624e-01 -6.7802077604179084e-02
      6.3014352902578474e-01 -1.2882414819021606e+00
      3.4426312763622491e-01 -4.9839030149351995e-02
      5.3505501650480736e-01 2.6066002315808912e-01
      5.1566961266114653e-01 -4.7759960319336636e-01
      -3.2903712677162128e-01 -1.1537463153111680e+00
      1.8901051936465038e-01 1.0989605973179387e-01
      -1.3122341309338001e+00 3.5621303154866019e-01
      4.6246603558361343e-01 1.3609166843126144e-01
      9.9815287345274908e-02 1.9206980338466051e-01
      -4.1978556944035628e-01 1.3276693169926287e-01
      1.2632477766948735e-01 -2.3408446307918171e-01
      3.3276393256631193e-01 -1.6362661024628503e-01
      6.6326999500786396e-02</_>
    <_>
      -1.0005566828646573e+00 5.7206975999018594e-01
      -6.9167085823619551e-02 -3.5622810872860194e-01
      3.2831562776281009e-01 -5.5249325985364417e-01
      -4.1428957842161529e-01 -9.5972511888400128e-02
      -3.7125453031028616e-01 4.1657075186816139e-01
      -5.1418177370628737e-01 8.5639828259978201e-01
      7.2567659341032187e-01 9.7896739137301214e-01
      -1.0181801599045903e+00 -5.6030563336148242e-01
      1.8998523055390862e-01 -1.4577341168922098e+00
      -3.9418002391015911e-01 1.0882906010176572e+00
      -3.8152370510106670e-01 3.9323702691127727e-01
      -7.2990093881437157e-01 -2.4094785941151067e-01
      -1.1852314394816066e+00 2.5944433702994537e-02
      -2.6000726720767087e-01 -6.2259276635481375e-01
      9.9735724526439890e-02 -3.2649354576463707e-01
      -1.7755349031202114e-01 -1.5263528738454681e-02
      -7.8259015835862214e-02 4.6312331477217589e-01
      -1.1570603330566996e-01 5.5489983295496692e-01
      7.0544604407797765e-02 -4.3626805684348396e-01
      -2.1353073338392276e-01 4.3506837354436356e-01
      1.7483860291443029e-01 2.1683574406635533e-01
      2.0384532462060947e-01 -3.8600032585888766e-01
      1.6840977140313657e-01 -3.6026318955749009e-01
      3.2379608389267112e-01 1.3056915633361571e-01
      5.4527709536034297e-01 1.1568908959348742e-02
      -1.3685913196230906e-01 -1.9807683799495324e-01
      -1.6192745075050255e-01 -1.4874084680534286e-01
      -2.5348418023159930e-02 -4.1151934062282330e-01
      -4.2789426535478577e-02 -1.0712078948086215e-01
      6.5552297422444450e-01 -3.9408556649694909e-01
      8.1993953717221790e-02 3.1763938620251149e-03
      -4.3724175398876025e-01 -4.1593708194288720e-01
      -1.0393983133544923e-01 4.8884143078200624e-02
      -4.3690261091997161e-02 -8.0651268837606838e-01
      2.7968782800692916e-02 2.7519317222893519e-01
      4.7390727433312541e-01 2.7612458342440299e-01
      -1.2460093136539510e-01 -5.5669032189122940e-02
      -7.5172453081124954e-02 -3.0578837677684129e-01
      1.5381145089318132e-01 -6.8672214143701216e-01
      -6.3159184555794334e-02 1.5057766369436820e+00
      -1.3149637166759681e-01 4.9714708615029712e-01
      -6.9401692402228798e-01 1.8477096816960495e-01
      -4.8975872774354129e-01 -4.0362457552499298e-01
      6.9335854810761144e-01 6.3660117312622022e-01
      7.6289039594605701e-01 5.7257566649888580e-01
      -2.0352094068867510e-01 6.7878829449118994e-01
      -2.2524468362466968e-01 -3.7044512193295659e-01
      -6.7369331668331112e-01 1.4921218234199016e+00
      -1.6567073349772465e-01 1.0038035037278459e-01
      1.5384795695112599e-01 6.6857164310458406e-01
      -1.0045338644081728e-01 -1.1072216328830102e-01
      8.6643497562826577e-02 -6.9600557274357322e-02
      2.2417836203278213e-01 -9.5474117174201922e-01
      1.8476039345536779e-01 -5.1154071165363368e-01
      9.5392883784871574e-01 4.3838683743905904e-01
      -6.1433973634622041e-01 -7.2822142676976620e-02
      -1.7190630045990601e-01 -3.6137348404214775e-01
      1.6345469695869766e-01 -1.1765561694413622e+00
      2.2399610676406324e-02 -6.0470334708791473e-01
      8.3450039850103130e-01 -7.6956171977930854e-01
      1.3258244935726196e+00 3.8250853194901824e-01
      -5.0847143657030613e-01 -1.3140154705076423e-01
      -5.2984352893059927e-01 4.1497307136134476e-02
      -3.4433817372044804e-04 -6.5308242128147864e-01
      7.3611585516474065e-02 6.9687135167346015e-01
      1.5861219524409567e-01 -4.2024835075285388e-01
      1.6435091132061337e+00 -2.7334748460180445e-02
      -3.9925491327486862e-01 6.2748480308110255e-01
      -2.1593289729800771e-01 -1.6023897248732672e-02
      7.2155202154570483e-02 -5.2217419558808587e-01
      2.5781713886887256e-02 -5.1768728752228499e-01
      6.0470944119446834e-01 -9.4025170467781777e-02
      9.8612388830094433e-01 -1.3172797040905829e-01
      -3.8479759171547551e-01 1.1012408141156054e+00
      -1.6052904818274860e-01 2.7894267855712945e-01
      1.2767387012040440e-01 -1.5269028033168288e+00
      1.6363316990003454e-01 -1.6931914375564050e+00
      -7.4265278324016901e-02 -9.7751424555619137e-01
      -9.4419657650877098e-01 -4.6968964973576827e-01
      1.0628827333237099e+00 2.3063222438376973e-01
      1.8836761521870909e-01 9.7207476749515276e-01
      -6.2375028643258952e-02 7.2247884810118101e-01
      -1.6534474525731019e-01 -4.4603083709613484e-01
      1.3277427208117404e-01 9.9475412455869061e-01
      1.2012510179731137e+00 8.0494726271774522e-02
      4.2962550905652312e-02 2.0066577801899449e-01
      -6.9800448309337138e-01 3.1336648372307557e-01
      3.5533214066641883e-01 -1.0865826857912726e+00
      3.2503002164674527e-01 6.6165714671041027e-03
      7.0447284259560350e-01 -8.8057860531557819e-01
      -5.3968244746083738e-01 2.6660830234362887e-01
      1.1169849342561573e-01 -5.2638279941576493e-01
      6.3959173398984148e-01 -7.0992059452875644e-01
      -3.5975609169338113e-01 6.8507425505443820e-01
      -3.3998609384236306e-01 6.4139710507361836e-01
      -9.2660004598044043e-01 6.3933358709689914e-01
      -2.9389798400383976e-01 -3.1285240475628578e-01
      2.7535192591208441e-01 -1.8372342661442431e-01
      3.4917726494108969e-01 -1.1363665813945856e-01
      -1.6259652010420675e-01 -3.2037903881024143e-01
      -2.1671493036586809e-01 3.8273165111498403e-01
      -2.2189456317950249e-01 -2.1830944449208189e-02
      -1.2212520967888667e+00 1.4786869587120738e-01
      3.1429245593438754e-01 -4.3613586808358595e-01
      1.8468581346480217e-01 -1.3892579967427565e-01
      -2.1432796004936949e-01 4.6147180740628824e-01
      -1.7012413012882097e-01 5.8528153842234990e-02
      -2.2847953118402992e-01 9.6004324647929629e-01
      5.7176667148131932e-01 6.5939928275195581e-01
      -7.7157732836994219e-01 -3.3220079284617066e-01
      -1.2303745659564841e-01 -1.0880342138750172e+00
      -1.6586313560835383e-01 6.0554107010830815e-01
      -1.2913514537019752e-01 7.8384380620548666e-01
      -1.0765395071782449e+00 1.0265529471737823e-01
      2.2473698872542675e-01 -1.2458945844121340e-01
      1.3218304884217924e-01 -2.6783514400626696e-01
      -3.1847255133933872e-01 2.3227274109265930e-01
      1.7028935703031051e-01 2.9648922557473850e-01
      1.2487255637129348e-01 3.4913260419041431e-01
      -1.9819684550650227e-01 -2.0500055686044943e-01
      5.3771854192783165e-02 -2.5900482991391782e-01
      4.0654518826897251e-01 -3.1077607191340167e-01
      -1.0975965316965618e-02 3.0861734442009786e-01
      2.3924776192535385e-02 -2.4075810926420579e-01
      8.2682888903643253e-02 5.6827635584698732e-01
      -1.1617005783723895e-01 -1.5381124520062617e-01
      -1.0067839797049645e+00 -2.8671544920546643e-01
      3.3097408143262057e-02 2.3760790120163366e-01
      1.4119315968339571e-01 2.2933173731735026e-01
      5.0284191701287617e-02 -1.4319788461639738e-01
      -1.2053531040923323e-02 -2.0046818741485409e-01
      -3.6625296208781001e-02 -5.2057314179192980e-02
      5.8027116316510519e-01 2.8685030996594257e-01
      -1.5893612289942854e-01 -1.0233496738540482e+00
      -3.0506716401871226e-01 1.0373282557975165e-01
      -2.2410074681076517e-02 8.9653533826546686e-02
      -8.3355500410074196e-02 7.9961072628154517e-01
      3.8803857307085193e-01 -4.0551028401784944e-01
      -5.1591933027917947e-01 3.1852690840145165e-01
      4.1728240808160827e-01 -4.0799039801438852e-01
      8.5737602896115830e-02 -1.3699439572825575e-01
      -2.3742472739189088e-01 4.6241639509668775e-01
      -8.1553903929992594e-02 7.1116157404363622e-01
      -8.8573333842526369e-01 3.1044958987385872e-02
      -3.5529859361326410e-02 2.8549383006045570e-01
      3.0136295391905737e-02 -4.5080940769413769e-01
      -4.1446301071241629e-02 3.5355259070532519e-01
      -1.5095071631134244e-01 -1.6385939220528023e+00
      -1.3155083802651371e-01 -3.1671766582321165e-01
      1.3993519684772198e+00 1.2078916951317846e-01
      2.4032324309545425e-01 -3.2419824515069459e-02
      3.3325980825493889e-01 -9.3851287719744270e-01
      -2.7332242715504507e-01 3.1140765858531044e-01
      9.5988594886377968e-02 -9.7970868408934333e-02
      1.0284385980106574e-01 9.6357232338831544e-01
      -3.1945411960627244e-02 -2.6807166086759513e-02</_>
    <_>
      2.0026341131848377e-01 3.2330583380927238e+00
      1.5103049589879229e+00 1.6977174696790107e-01
      -1.6910548455716774e+00 -1.0548612216209725e+00
      -2.1809165785557498e+00 6.9114193839383997e-01
      -5.4578817219139075e-01 -1.4302229355125400e+00
      -1.9845688659771334e+00 8.5624408789798001e-01
      -4.2406486218302847e-01 7.6946105323224068e-01
      3.4585787651500871e-01 -2.8550239108281663e+00
      -3.5429583263273934e-01 7.7628420280476518e-01
      2.4127520926714037e+00 -5.8197098633601496e-01
      1.7784385261565896e-01 2.4193393747236103e+00
      -3.9787473917159605e-01 -2.8018540985613911e+00
      -2.1639891011170062e-01 4.0758653960657759e-01</_></weights></opencv_ml_ann_mlp>
</opencv_storage>
